Antibody_Name,0,1,2,3,4,5,6,7,8,9,10,11,12,13,14,15,16,17,18,19,20,21,22,23,24,25,26,27,28,29,30,31,32,33,34,35,36,37,38,39,40,41,42,43,44,45,46,47,48,49,50,51,52,53,54,55,56,57,58,59,60,61,62,63,64,65,66,67,68,69,70,71,72,73,74,75,76,77,78,79,80,81,82,83,84,85,86,87,88,89,90,91,92,93,94,95,96,97,98,99,100,101,102,103,104,105,106,107,108,109,110,111,112,113,114,115,116,117,118,119,120,121,122,123,124,125,126,127,128,129,130,131,132,133,134,135,136,137,138,139,140,141,142,143,144,145,146,147,148,149,150,151,152,153,154,155,156,157,158,159,160,161,162,163,164,165,166,167,168,169,170,171,172,173,174,175,176,177,178,179,180,181,182,183,184,185,186,187,188,189,190,191,192,193,194,195,196,197,198,199,200,201,202,203,204,205,206,207,208,209,210,211,212,213,214,215,216,217,218,219,220,221,222,223,224,225,226,227,228,229,230,231,232,233,234,235,236,237,238,239,240,241,242,243,244,245,246,247,248,249,250,251,252,253,254,255,256,257,258,259,260,261,262,263,264,265,266,267,268,269,270,271,272,273,274,275,276,277,278,279,280,281,282,283,284,285,286,287,288,289,290,291,292,293,294,295,296,297,298,299,300,301,302,303,304,305,306,307,308,309,310,311,312,313,314,315,316,317,318,319,320,321,322,323,324,325,326,327,328,329,330,331,332,333,334,335,336,337,338,339,340,341,342,343,344,345,346,347,348,349,350,351,352,353,354,355,356,357,358,359,360,361,362,363,364,365,366,367,368,369,370,371,372,373,374,375,376,377,378,379,380,381,382,383,384,385,386,387,388,389,390,391,392,393,394,395,396,397,398,399,400,401,402,403,404,405,406,407,408,409,410,411,412,413,414,415,416,417,418,419,420,421,422,423,424,425,426,427,428,429,430,431,432,433,434,435,436,437,438,439,440,441,442,443,444,445,446,447,448,449,450,451,452,453,454,455,456,457,458,459,460,461,462,463,464,465,466,467,468,469,470,471,472,473,474,475,476,477,478,479,480,481,482,483,484,485,486,487,488,489,490,491,492,493,494,495,496,497,498,499,500,501,502,503,504,505,506,507,508,509,510,511,512,513,514,515,516,517,518,519,520,521,522,523,524,525,526,527,528,529,530,531,532,533,534,535,536,537,538,539,540,541,542,543,544,545,546,547,548,549,550,551,552,553,554,555,556,557,558,559,560,561,562,563,564,565,566,567,568,569,570,571,572,573,574,575,576,577,578,579,580,581,582,583,584,585,586,587,588,589,590,591,592,593,594,595,596,597,598,599,600,601,602,603,604,605,606,607,608,609,610,611,612,613,614,615,616,617,618,619,620,621,622,623,624,625,626,627,628,629,630,631,632,633,634,635,636,637,638,639
abituzumab,-0.22838226,-0.12041433,-0.0040323692,-0.026321374,0.4627229,-0.17355993,0.16259599,0.07667876,-0.18650898,-0.049871176,0.13314329,0.09706396,0.24862425,0.29053476,0.010799162,-0.09122756,0.12412008,-0.27701926,-0.29229188,-0.06810738,-0.06598364,-0.12848721,-0.041138884,0.11338435,-0.3400209,0.050867394,0.030253155,-0.01413068,0.09195016,0.31934556,-0.4530577,0.4112397,0.0770983,-0.3129156,0.11651962,-0.432395,0.36836553,0.08331668,0.116496846,-0.066142544,0.06758201,-0.17393377,0.28630704,-0.11636897,-0.24586442,0.108990654,-0.99592584,0.10009981,-0.105140075,-0.053163286,-0.25829664,0.0817033,0.17415448,0.31112677,0.007311338,-0.40973222,0.24329199,-0.06978731,0.251065,-0.180398,-0.052256472,-0.28755862,-3.43924,-0.2213855,-0.03171127,-0.25728557,0.023392368,0.23647152,0.1527694,-0.17438185,-0.1305225,0.19504301,0.08767421,0.072151296,0.2870242,-0.17876534,0.187438,-0.31457382,0.10932215,-0.118657306,0.15124272,-0.05834159,0.14471486,0.17002007,0.017059416,-0.104048625,0.43720374,-0.15263867,0.038528096,0.12420349,-0.14854884,-0.21420893,-0.040008612,-0.020320563,-0.5889515,0.16492198,-0.04699828,-0.14024316,0.18160264,0.08984034,0.14327466,0.12866159,0.24968565,-0.1869907,-0.1294801,0.45213622,-0.056467026,0.17686462,-0.12603544,-0.04884661,-0.18371294,0.07059415,0.20954683,0.073568694,-0.35474205,-0.14767589,0.26848495,0.11960234,-0.09159113,0.107090436,0.10132218,0.2781371,0.33893514,0.17536387,-0.18246175,-0.35909975,-0.28886956,0.014148571,-0.10331075,-0.086616315,0.2531553,0.09320365,-0.08525277,-0.04708944,0.32099354,0.018540932,-0.016878013,-0.07617949,0.0012054335,-0.2923913,0.14656432,0.14389989,0.3189403,-0.024584,-0.06903076,-0.12247015,-0.15648702,0.17154211,-0.03739778,0.12965176,-0.22555263,-0.21222466,-0.3313911,-0.19376804,-0.14165561,0.3199318,-0.15276426,0.09009534,-0.28178936,0.08503166,0.10520634,-0.013059768,0.26904687,0.049507555,-0.04793735,-0.09952244,0.09694316,-0.07107317,-0.2793598,-0.00017858612,-0.17783733,0.050981876,0.082846224,0.113871045,-0.07362186,-0.07206438,0.12581263,-0.00044886643,-0.016422607,-0.19057745,0.03386765,-0.49181372,0.20423971,-0.080439016,0.10657233,0.09171623,-0.09021171,-0.051395625,-0.010432528,-0.19308326,-0.12861532,0.057311404,0.23274559,-0.08394381,0.19773962,0.046981663,-0.2884397,0.16580857,0.22095561,0.22171357,-0.18027474,-0.0706698,-0.307276,0.093615286,0.097426675,-0.10856539,-0.37588477,0.033688486,-0.14856014,-0.15347351,0.056239806,0.005226936,-0.18803245,-0.06912141,0.056320153,0.34827986,-0.124434166,-0.13011368,-0.061799426,-0.07069779,-0.21601006,-0.06670612,0.16772234,0.19167234,0.2659025,-0.0031147902,-0.2859553,-0.22654033,0.2682232,-0.056560278,-0.09615617,-0.22932266,0.28290242,0.036547784,0.35583672,0.060123272,0.15766037,-0.2339858,0.10538944,0.1796923,-0.09662769,-0.12286023,0.08695913,0.24814083,-0.18084385,-0.07257313,0.29144675,-0.07571455,0.15032232,-0.016111592,-0.14011972,0.06612892,-0.30252472,-0.1248715,-0.08809525,0.016223758,-0.18016812,0.12049984,0.25420383,-0.05897509,0.024502268,0.10061435,-0.20731732,-0.12732536,0.22010499,0.15430768,-0.028907372,-0.22451065,0.082274064,-0.27149367,0.037192523,0.25053722,0.049807854,0.15557553,0.046582837,0.0906477,-0.29013252,0.055843014,-0.0016628443,0.15963645,0.033835035,-0.35021067,0.08294077,0.12448584,0.61366606,0.21142142,-0.028041376,0.26766652,-0.06349877,0.2279229,0.13252778,-0.28306642,0.0781436,0.12876889,0.20485207,-0.10598723,0.14514852,0.25498253,-0.46897772,0.31986767,-0.04711136,0.063978694,-0.3181756,0.3651816,0.2107815,-0.13248543,-0.15598068,-0.07359186,-0.11373402,-0.22598419,-0.010901472,-0.0012021529,0.06059912,0.29171294,-0.046851367,-0.40402415,0.13451515,0.42809042,-0.046844658,-0.18198143,-0.26774475,-0.110327035,-0.022335643,0.018306898,0.4197849,-0.14290452,0.14837421,0.098899394,-0.12065,-0.06990336,0.17269877,0.1967931,0.16298522,0.24893232,0.082559735,-0.22671707,0.17517354,-0.2967931,-0.25600833,-0.09839452,-0.017198946,-0.10927715,0.10290722,0.080066174,-0.20603599,0.11304156,-0.015368753,0.008459065,0.14791536,0.32343525,-0.43907472,0.5430467,0.06598854,-0.100883625,0.0996503,-0.3043522,0.34767407,0.0043032626,0.10736283,-0.05109344,0.054791354,-0.1334905,0.2408715,-0.13375844,-0.21561158,0.0986266,-1.0354781,0.2118404,-0.035018567,-0.101246975,-0.16723736,0.12879322,0.13321778,0.22076406,-0.017325524,-0.35744408,0.19544227,-0.09597742,0.21322468,-0.17345603,-0.026384577,-0.35322848,-3.4122212,-0.27830502,0.055005074,-0.17118672,0.034358893,0.2331697,0.070612356,-0.18868876,-0.12975185,0.21122494,0.08877881,0.022166535,0.32321697,-0.14981224,0.2277725,-0.23647533,0.10632214,-0.18833652,0.036724787,0.12376336,0.22084454,0.1410786,0.06590673,-0.11461226,0.45095003,-0.093831256,0.009506354,0.0824376,-0.14852166,-0.2956348,-0.0021604067,-0.09980084,-0.5888456,0.19084625,-0.06352473,-0.25386465,0.056444667,0.08735608,0.20076133,0.05732938,0.19836351,-0.21228437,-0.15753676,0.3302598,-0.11600813,0.14359039,-0.14043464,0.034547973,-0.103853635,0.050546315,0.15627596,0.11829054,-0.2656223,-0.056155384,0.31550738,0.16854241,-0.014871909,0.031614278,0.06569995,0.26212308,0.26194775,0.044911955,-0.1299876,-0.2522585,-0.26253915,-0.1081433,-0.06182342,-0.0797976,0.23193777,0.07007731,-0.016535824,-0.037333373,0.30470982,0.04895646,-0.039470725,-0.019775823,-0.03453166,-0.34994727,0.22097446,-0.0015655918,0.25155416,-0.09792415,-0.0712764,-0.17990394,-0.14733161,0.28212944,-0.033994354,0.08330971,-0.20447026,-0.2091145,-0.21451166,-0.16286434,-0.29704353,0.27861792,-0.102446996,0.08613626,-0.21310915,0.047440868,0.08708982,0.0030806444,0.20120247,0.043656718,0.015723033,-0.05842391,0.14359102,-0.095814034,-0.13592333,-0.008138455,-0.21616279,0.021162733,0.09598345,-0.013867405,-0.14722334,-0.10599514,0.07368683,-0.017643614,-0.03041149,-0.27721474,-0.010969246,-0.54535186,0.17606442,-0.043025382,0.10613104,0.14305462,-0.1567795,-0.037808027,-0.062567525,-0.09161172,-0.12896834,0.088094585,0.14042796,-0.038504682,0.21305169,0.054701325,-0.25480938,0.1840424,0.18861105,0.17721723,-0.16672744,-0.048132308,-0.29744005,0.095811196,0.05132432,-0.13724038,-0.32501662,-0.12225481,-0.12855819,-0.19796853,0.053201683,-0.01734034,-0.19502383,-0.060515065,0.06181058,0.2592936,-0.11395359,-0.14818501,-0.16199456,-0.023021763,-0.32464242,-0.075440235,0.20490552,0.12198722,0.3234126,-0.0937336,-0.27202982,-0.105237156,0.20275673,-0.00970039,-0.113632806,-0.2033261,0.26992464,0.037699852,0.32804713,0.06272046,0.04908632,-0.14252932,0.15204518,0.22435105,-0.17267154,-0.14128496,0.14543295,0.30224168,-0.16975257,0.039101105,0.36840487,-0.015966611,0.06840657,-0.14682852,-0.06764371,0.11682361,-0.24339215,-0.068382256,0.039290525,0.061249226,-0.097005524,0.12973256,0.31902227,-0.010467654,0.09573856,0.062612906,-0.2707057,-0.18125288,0.24161291,0.15566494,-0.050470505,-0.17658186,0.082766816,-0.15925466,-0.048099197,0.282078,0.03580348,0.11666663,-0.040337034,0.092167765,-0.22955397,0.01918905,-0.031587735,0.20082085,0.055013157,-0.31105,0.07766811,0.07740181,0.5373335,0.2962208,-0.048152193,0.19304155,0.03735028,0.20027925,0.09113554,-0.34533328,0.012400086,0.08269772,0.20308112,-0.037345544,0.055691466,0.24523483,-0.40259522,0.3477772,-0.1733878,0.08303505,-0.29585192,0.40487102,0.1554856,-0.118785284,-0.1371471,-0.037543144,-0.1674573,-0.26174775,0.04997834,-0.007129212,0.064989224,0.23800452,-0.055540062,-0.4119112,0.14875488,0.38132387,-0.076524265,-0.12197262
abrilumab,-0.23991147,-0.09708119,0.050734606,-0.012827025,0.43702477,-0.14234944,0.18614514,0.113815986,-0.21538925,-0.0233231,0.16679117,0.20076534,0.22198933,0.28942308,0.02618846,-0.122255795,0.07855224,-0.2837697,-0.32191223,-0.08250123,-0.16836661,-0.17987198,-0.016248647,0.026990376,-0.33592102,0.086613625,0.041237812,-0.042298667,0.101748005,0.34326652,-0.38072503,0.43691203,0.026088795,-0.3121355,0.118116856,-0.38717133,0.33414814,-0.0072311577,0.098221,-0.0031447886,0.102868594,-0.073918685,0.22251213,-0.08887345,-0.2119684,0.13023445,-0.913985,0.08259319,-0.076822095,0.005483027,-0.24252889,0.0069183027,0.13296498,0.39890417,0.022837574,-0.43611196,0.1664631,-0.06886909,0.31005815,-0.19308174,-0.08657769,-0.29512542,-3.279466,-0.2109288,-0.06281655,-0.28374642,0.021552417,0.26810542,0.13951473,-0.22921327,-0.10678404,0.25322485,0.09482247,0.05256883,0.34723845,-0.15012963,0.14367937,-0.36991408,0.16255543,-0.14843485,0.13285576,-0.15393671,0.18561186,0.1934852,-0.0035615633,-0.13579947,0.446404,-0.17119896,0.04588722,0.14287898,-0.17538208,-0.25793365,-0.09329216,-0.08987817,-0.6086255,0.150995,-0.027029011,-0.095167816,0.23579739,0.11126418,0.12160339,0.06572972,0.25191996,-0.15475199,-0.15454167,0.5026383,-0.078481555,0.17796074,-0.13979389,-0.027878216,-0.19557756,0.06579265,0.16200499,0.075378306,-0.25812086,-0.12350317,0.23255762,0.05051531,-0.10651609,0.077938326,0.11822979,0.259767,0.37485936,0.078964315,-0.20772885,-0.32552996,-0.26468807,0.10010404,-0.074240394,-0.030082569,0.22975479,0.17043877,-0.11689519,-0.019674724,0.27480674,0.11786541,-0.096474916,-0.08974489,-0.06483269,-0.34926915,0.08475489,0.14460422,0.3220203,-0.048494603,-0.067053735,-0.15964177,-0.13967672,0.18225026,-0.030508956,0.18325718,-0.24520004,-0.22000556,-0.30007392,-0.1576723,-0.1535489,0.30912626,-0.13127345,0.07863245,-0.2927529,0.11631862,0.124901555,0.01847618,0.24412099,0.042849153,-0.017356725,-0.037375152,0.14872333,-0.11116717,-0.29320195,0.01935578,-0.13346463,0.15192798,0.099002585,0.18273127,-0.14585005,-0.067143604,0.16001695,-0.020593014,-0.033717163,-0.1427157,0.053359028,-0.58455217,0.26387608,-0.059637733,0.11797826,0.092838995,-0.082767785,-0.0645543,-0.0045142598,-0.2775873,-0.16020037,0.037624642,0.27801958,-0.13787465,0.19685347,0.03648162,-0.34091407,0.216859,0.23522846,0.24512938,-0.24098662,-0.06968868,-0.36435065,0.10224432,0.11094018,-0.028643172,-0.2906898,0.08097461,-0.21697351,-0.05588659,0.08921108,0.034331307,-0.16869622,-0.105036266,0.06871999,0.33643672,-0.18001081,-0.16518205,-0.035026517,-0.1391228,-0.2448174,-0.13833123,0.15648027,0.15982346,0.32202917,-0.01660618,-0.25337702,-0.23308064,0.2564172,-0.033359993,-0.0687197,-0.26885483,0.2842105,0.03584046,0.38187468,0.018222531,0.18977883,-0.23251401,0.111384004,0.13184574,-0.0124078905,-0.116926126,0.06138843,0.24563977,-0.18569814,-0.107829,0.24168642,-0.07992245,0.138504,-0.049036596,-0.19579984,0.13070694,-0.346991,-0.17331316,-0.14803942,-0.075432524,-0.20516281,0.114516646,0.30658522,-0.110851176,0.025774624,0.013393788,-0.24512005,-0.14799578,0.21444957,0.15954414,-0.050378066,-0.22375922,0.07323154,-0.24501939,0.04139627,0.26099882,0.060345113,0.1756783,0.048733234,0.092088096,-0.26336834,0.07971083,-0.009352232,0.15406254,0.08086377,-0.3378217,0.12180811,0.1866729,0.5486326,0.08864536,-0.029783558,0.34205872,-0.07912891,0.21478443,0.068023875,-0.31846416,0.13397482,0.1334811,0.22001716,-0.16143116,0.19909646,0.20012464,-0.4432743,0.37271145,-0.08146404,0.094612285,-0.3451604,0.3711184,0.13478081,-0.13484585,-0.12606417,-0.09037068,-0.14506988,-0.15984322,0.007752935,0.01919499,0.033084102,0.35066235,-0.10520227,-0.37274033,0.1765096,0.40942666,-0.051203243,-0.1686315,-0.2916229,-0.13514253,0.015342016,-0.040335797,0.3605882,-0.15337048,0.18779066,0.111032896,-0.14263685,0.008539586,0.22157304,0.23147956,0.16237123,0.26464558,0.058108423,-0.19992411,0.15998569,-0.31180286,-0.24144281,-0.1440631,-0.08529194,-0.132795,0.02754729,0.051945105,-0.28562602,0.13927412,0.032716107,0.004297209,0.14803526,0.3442809,-0.42296562,0.44755313,0.07017164,-0.11557816,0.11611679,-0.35732603,0.39020628,0.056315575,0.059035636,-0.08291171,0.0121423565,-0.09592402,0.30767894,-0.08279841,-0.2575299,0.075659744,-0.9457492,0.19974627,-0.010265054,-0.0604327,-0.23839712,0.08154825,0.09041373,0.23805551,0.0026624023,-0.32379717,0.2079384,-0.05692228,0.20231734,-0.19377415,-0.05242246,-0.30984956,-3.4352531,-0.27379248,0.056779247,-0.24819647,-0.02859189,0.21479422,0.10184771,-0.2017865,-0.13292173,0.24318208,0.12503457,0.031713206,0.3344568,-0.11224392,0.28662562,-0.24914563,0.12859325,-0.1701322,0.067247555,0.094770126,0.20173222,0.19426645,0.046836264,-0.1446967,0.46345422,-0.090732306,0.023469796,0.085471325,-0.070467055,-0.3183055,-0.010404787,-0.041987404,-0.6066914,0.11229301,-0.06826921,-0.22984496,0.069024004,0.13003412,0.18074962,0.029080493,0.16050723,-0.2061652,-0.15569144,0.34028378,-0.11329401,0.07827137,-0.11548092,0.00074534107,-0.10454093,0.10561082,0.13250394,0.094589025,-0.2668836,-0.05393833,0.25679195,0.10995528,0.04124784,0.10567892,0.084184915,0.22533208,0.24267653,0.10204137,-0.17955498,-0.26595914,-0.28670081,-0.0454557,-0.0985176,-0.0885248,0.26700476,0.034291912,-0.043483615,-0.03806586,0.2655608,0.056471847,-0.03275296,-0.008231096,-0.059915595,-0.34747747,0.1196919,0.040174946,0.261667,-0.09794536,-0.064047806,-0.15786295,-0.13984543,0.2997789,-0.07812748,0.028721858,-0.24445154,-0.15330282,-0.21694045,-0.20460753,-0.2766945,0.29414484,-0.13205773,0.046342555,-0.21659355,0.077436216,0.072468765,0.006551796,0.20888245,0.036142565,0.042697888,-0.024117915,0.08867182,-0.12088977,-0.13944897,-0.044314638,-0.105163485,0.051045477,0.058946323,0.0072747543,-0.067914434,-0.09329774,0.021123173,-0.0065301997,-0.04348718,-0.23538093,0.0054792957,-0.5428044,0.16706139,-0.061121594,0.0912946,0.13531116,-0.14714906,-0.0032342684,-0.041594647,-0.10957531,-0.1165991,0.10837718,0.09775303,-0.010724575,0.16800345,0.10900314,-0.19271298,0.1834269,0.24672168,0.14365509,-0.1740375,0.001992532,-0.2954304,0.14204241,0.047367122,-0.10438489,-0.29494143,-0.008941587,-0.1285863,-0.17287235,0.056713052,-0.020541511,-0.17501734,-0.02724931,0.1151133,0.2546109,-0.13191067,-0.17378543,-0.13892029,-0.04356305,-0.25796977,-0.11886384,0.27115196,0.08161432,0.35040775,-0.032119334,-0.2643297,-0.111507505,0.23152775,-0.08189875,-0.13197738,-0.24922355,0.2681184,0.028871097,0.3543358,0.04590023,0.069787666,-0.14901972,0.10555143,0.15341392,-0.12145579,-0.140057,0.1692393,0.28201395,-0.21818097,0.041001834,0.3602588,-0.002322641,0.111507535,-0.12744471,-0.09148984,0.042616818,-0.22020811,-0.108554825,-0.038667634,0.02585855,-0.08317985,0.16855472,0.24438392,-0.016826611,0.10616009,0.07227615,-0.25834677,-0.18948503,0.17759998,0.10594374,-0.051279932,-0.22559367,0.057033766,-0.18259202,0.00050099095,0.2944224,0.019456135,0.22906166,-0.01853244,0.115109295,-0.2084973,-0.02069922,-0.012649801,0.22703505,0.06416135,-0.32041386,0.049535047,0.116708815,0.49885488,0.2767082,-0.062378775,0.17380545,-0.00078551343,0.23281144,0.112259455,-0.33924672,0.05539256,0.09173474,0.25150698,-0.049675785,0.061614867,0.19283997,-0.38053206,0.3126914,-0.15785916,0.059211913,-0.29033956,0.35097104,0.1311963,-0.11896815,-0.1269851,-0.075243086,-0.18847495,-0.21447818,0.07677265,-0.041152924,0.1113354,0.2664645,-0.13037856,-0.36239564,0.15697554,0.42471698,-0.060628295,-0.10583917
adalimumab,-0.22289431,-0.14749876,-0.031050287,-0.06498099,0.4132331,-0.22068271,0.11915738,0.12357483,-0.21353988,3.957256e-05,0.16482922,0.10094713,0.24657246,0.2774491,0.0152781615,-0.07363417,0.13241148,-0.23266535,-0.28978768,-0.08534274,-0.08956302,-0.17013663,-0.010270207,0.10802528,-0.3122554,0.11131395,0.07006061,0.035046298,0.090387784,0.3316955,-0.37382212,0.39764953,0.13005437,-0.26774138,0.07809723,-0.5144002,0.40252995,0.13781586,0.14055113,-0.046129312,0.059348326,-0.122019164,0.34506312,-0.11685918,-0.25770843,0.074488886,-1.0452265,0.10638822,-0.09343732,-0.031608332,-0.23192388,0.022383697,0.087394245,0.3346074,-0.04476045,-0.4009548,0.23057699,-0.0633686,0.2522079,-0.20692441,-0.05665784,-0.20631634,-3.4589758,-0.20836411,-0.10961488,-0.29136154,0.011489954,0.1564646,0.13548984,-0.19691274,-0.072690725,0.17641695,0.0638868,0.082443,0.2516228,-0.16311939,0.12336313,-0.3345663,0.099615596,-0.16146676,0.1320022,-0.03307476,0.17853637,0.19178633,-0.024267944,-0.08518123,0.4430367,-0.13791256,0.03546877,0.15337873,-0.15226981,-0.2548439,-0.07927637,-0.023112938,-0.6225291,0.20172942,-0.03947482,-0.17485948,0.21762595,0.061182283,0.121864095,0.15349415,0.2717304,-0.17136858,-0.10498499,0.47654706,-0.01856635,0.14239892,-0.06680855,0.027577987,-0.16877836,0.087342896,0.15732704,0.045125127,-0.3171497,-0.11613046,0.20186129,0.16181676,-0.11792072,0.17496952,0.06441673,0.281271,0.35363492,0.14680487,-0.17486158,-0.44769904,-0.2935671,-0.016343484,-0.074403934,-0.033533514,0.22291492,0.12711598,-0.08858367,-0.012312204,0.33175355,0.05423445,-0.015520472,-0.09817169,-0.036097888,-0.28893256,0.10207906,0.14204146,0.34061223,-0.0073702442,-0.11416823,-0.15515088,-0.19976395,0.15718293,-0.017939275,0.13528256,-0.17557582,-0.2594486,-0.3361311,-0.20988417,-0.15098263,0.3546874,-0.12562789,0.05471095,-0.29340404,0.11331221,0.16103217,0.0797977,0.2750134,0.080881685,-0.017059416,-0.0707005,0.102773815,-0.14749114,-0.241688,0.04007069,-0.08168613,0.09114907,0.09737148,0.21732838,-0.06134179,-0.12195419,0.10493007,-0.016216105,0.018822497,-0.16458316,0.07183518,-0.5028887,0.15201607,-0.15861842,0.086785436,0.10384396,-0.02957983,-0.06571577,-0.012398426,-0.21831936,-0.1813463,-0.0036212571,0.32636148,-0.099524304,0.17649287,0.12180638,-0.2337564,0.13120666,0.19683902,0.18647249,-0.15787214,-0.029174717,-0.23417209,0.073056415,0.032569945,-0.0516735,-0.4018275,0.070615485,-0.12841004,-0.09524921,0.06752732,0.09038085,-0.18363349,-0.07892462,0.05804981,0.3484512,-0.18108778,-0.10524026,-0.07751658,-0.0693152,-0.26607904,-0.15941052,0.21457888,0.11546252,0.28038117,0.06131955,-0.24841236,-0.20502393,0.22633412,-0.066192254,-0.16783798,-0.16987209,0.26679394,0.09574698,0.43081766,0.08027693,0.13844709,-0.18731633,0.032674186,0.15717877,-0.11356163,-0.15240552,0.091413796,0.18298241,-0.17422675,-0.11750152,0.26873413,-0.054000977,0.13658924,-0.014684519,-0.16705039,-0.016147578,-0.31920436,-0.13649924,-0.10609084,0.0014132517,-0.22202821,0.11868336,0.36115232,-0.03427529,-0.02490783,0.023134226,-0.21474451,-0.13405287,0.1593052,0.10230039,-0.034633264,-0.2661931,0.047362454,-0.17331967,0.009125885,0.26111948,0.044234306,0.1729823,0.07660049,0.017370578,-0.33472806,0.010216575,0.105326645,0.1355879,0.03972732,-0.3326334,0.064764895,0.16450976,0.5817554,0.13144116,-0.062166896,0.2713005,-0.11878567,0.2052289,0.097067334,-0.22773708,0.1292958,0.11358468,0.1412863,-0.15862854,0.15350156,0.26221272,-0.48594454,0.37414497,-0.01791775,0.025389656,-0.30848357,0.42918,0.23715298,-0.03739905,-0.244749,-0.10204256,-0.08066543,-0.15538439,0.013659406,-0.045808766,0.10126347,0.26985914,-0.119331926,-0.36205953,0.13878657,0.53218,-0.053082377,-0.21286939,-0.3193682,-0.13546708,-0.025591532,0.021766733,0.39308795,-0.17969991,0.14122075,0.14871673,-0.15949312,-0.0029381437,0.16990627,0.15506923,0.15961905,0.23340076,0.094268605,-0.19743563,0.17671183,-0.30128565,-0.28054446,-0.0643965,-0.07142361,-0.133076,0.013866922,0.11342954,-0.28125784,0.09040972,0.060354535,0.061550546,0.098193265,0.32905975,-0.438153,0.4469555,0.085327595,-0.16374463,0.10441623,-0.36054718,0.42119932,0.085570894,0.1000001,-0.08538034,0.040235084,-0.17024046,0.31729418,-0.09141382,-0.24406445,0.09961593,-0.9263525,0.19813634,0.0041767866,-0.1158261,-0.2298891,0.11164717,0.15354018,0.23159972,-0.006501208,-0.3284389,0.232524,-0.06767262,0.2377984,-0.19734928,-0.04115673,-0.36545748,-3.2724154,-0.31411713,0.065433055,-0.1988163,-0.023003953,0.2003765,0.09355696,-0.20478283,-0.122542135,0.20663846,0.07383697,0.045986023,0.3109799,-0.17281072,0.23310553,-0.24505377,0.09242418,-0.1434395,0.024415405,0.108941026,0.19203942,0.16913494,0.0610288,-0.18298225,0.47727063,-0.096671574,0.012005736,0.11471841,-0.1238134,-0.24274983,-0.017631175,-0.0746967,-0.6317445,0.17159727,-0.0353947,-0.2557258,0.03694777,0.12774792,0.22187872,0.07562228,0.18165813,-0.20682782,-0.13449386,0.35794795,-0.1157261,0.11382034,-0.07999548,0.025665034,-0.08033022,0.060935277,0.1843282,0.06293173,-0.30466425,-0.06900913,0.2709949,0.19396392,-0.004005108,0.09840728,0.07628922,0.24375245,0.27280286,0.14614147,-0.17286952,-0.311335,-0.33012214,-0.14255816,-0.03304631,-0.10397773,0.26307136,0.058640335,-0.058328923,-0.058208007,0.3182914,0.008434822,-0.0074238805,-0.029015051,4.5618162e-05,-0.31409702,0.15782781,0.027761333,0.26693764,-0.053812206,-0.11077058,-0.17325403,-0.16989525,0.2891913,-0.04597855,0.029967899,-0.23583585,-0.21223283,-0.2292443,-0.18980883,-0.30359414,0.30333045,-0.13419545,0.06912249,-0.24262327,0.030951304,0.052710082,0.026625486,0.24135654,0.061889604,0.009528709,-0.049035598,0.104972765,-0.09002009,-0.13003248,-0.033215437,-0.14794077,0.016576244,0.07570976,0.03078873,-0.07130441,-0.15112561,0.02600024,0.011406346,-0.030668726,-0.23514475,0.008300797,-0.4781927,0.15812893,-0.0945695,0.11051315,0.15655018,-0.1554065,-0.053772744,-0.0752042,-0.11957522,-0.13040176,0.07367748,0.18226531,-0.019863663,0.18236299,0.07702102,-0.2293641,0.17383209,0.19434471,0.14744858,-0.17301516,0.008733466,-0.29596537,0.10278416,0.038722456,-0.12679042,-0.37762812,-0.0073467996,-0.102906555,-0.20725414,0.038661543,0.01405823,-0.18991822,-0.06208687,0.057507943,0.29397553,-0.13690725,-0.1494374,-0.124168985,0.0018609622,-0.2787489,-0.10519657,0.20839599,0.12392916,0.36024514,-0.05751853,-0.26064318,-0.1694976,0.2363227,-0.049778394,-0.15130433,-0.21160346,0.26097938,0.09237643,0.35298976,0.059906542,0.01265129,-0.14715,0.10507171,0.19112593,-0.15015222,-0.14260258,0.19640748,0.2881805,-0.17258947,-0.017759765,0.36115032,-0.05340183,0.1315251,-0.14431539,-0.07999694,0.037185803,-0.23301567,-0.0662648,0.009855881,0.10118844,-0.07359898,0.11939089,0.26005936,0.019139415,0.092837624,0.08562694,-0.27983493,-0.18926233,0.20093355,0.06742194,-0.034291286,-0.18670237,0.06409372,-0.20284745,-0.013057424,0.24759008,0.026437597,0.19218591,0.01044027,0.09717861,-0.22167113,0.019853009,0.006019782,0.26135302,0.03536349,-0.29474273,-0.009257954,0.08914126,0.54392165,0.32893917,-0.056541964,0.16046824,-0.015072083,0.2372695,0.1333521,-0.32636747,0.011225747,0.07215801,0.18347141,-0.032120902,0.059342954,0.2746627,-0.4461336,0.34492743,-0.1452439,0.08984953,-0.29209763,0.4028952,0.16709544,-0.115497634,-0.14981122,-0.09988619,-0.16052234,-0.26887235,0.020505508,-0.00080410065,0.077289626,0.2561691,-0.12440919,-0.420175,0.16610406,0.45166337,-0.08946381,-0.14843327
alemtuzumab,-0.26168516,-0.17684469,-0.028165659,0.012431251,0.38061157,-0.22246648,0.17943121,0.16096514,-0.19871993,0.028564423,0.120565936,0.12916291,0.2887336,0.2785393,0.09967497,-0.14202584,0.12054114,-0.2461743,-0.28824547,-0.07299588,-0.13239203,-0.17069769,-0.012065936,0.13450357,-0.2899402,0.015834855,0.0750586,0.014802422,0.07211473,0.3154035,-0.42561287,0.36714822,0.053486392,-0.37826926,0.04037339,-0.39790773,0.43295616,0.105138384,0.07906754,-0.08748929,0.0576414,-0.19420794,0.3274045,-0.061015744,-0.24796993,0.09850256,-1.0158643,0.0913931,-0.05359731,-0.14079103,-0.21965812,0.11889615,0.16560338,0.41995284,-0.017853055,-0.37924546,0.23122399,-0.043603092,0.3219069,-0.2182341,-0.06697312,-0.30502763,-3.30525,-0.244545,-0.0777963,-0.17588301,0.008407659,0.20255885,0.10664476,-0.15176137,-0.14470193,0.22579695,0.083543696,0.09226789,0.23289289,-0.23603761,0.12703456,-0.34988913,0.07632013,-0.1337557,0.06435338,-0.029252646,0.22228026,0.1660737,-0.021445153,-0.13126752,0.52255756,-0.120183915,0.050416578,0.14739734,-0.17340012,-0.21335055,-0.07831435,-0.023788892,-0.64291006,0.22476587,0.045862623,-0.18909666,0.16298108,0.11284139,0.17964682,0.1936528,0.2898662,-0.22993271,-0.085526586,0.47620538,-0.035204004,0.14583604,-0.058272064,0.04060119,-0.18300581,0.04701716,0.20373024,-0.020649474,-0.36672854,-0.08941937,0.2107509,0.20348635,-0.20141563,0.108853534,0.112314485,0.27219412,0.3784003,0.13360366,-0.15934442,-0.3863179,-0.33450904,-0.009120419,-0.046763096,-0.08485167,0.250638,0.15428732,-0.13246253,-0.014379399,0.3264221,0.069000214,0.0036655567,-0.14537156,0.020586522,-0.328139,0.15480474,0.15771507,0.32158563,-0.03600992,-0.13524355,-0.15865399,-0.18934657,0.15481539,-0.047546644,0.18052326,-0.23230165,-0.29602,-0.316704,-0.14870831,-0.14003502,0.3704611,-0.10605581,0.025285685,-0.34312993,0.040937502,0.12043476,0.026087599,0.27414653,0.02435676,-0.0217576,-0.04910498,0.14754896,-0.1127203,-0.26567176,0.06672605,-0.20977487,0.10648579,0.12057934,0.18969034,-0.11552602,-0.093000844,0.14010341,-0.017257279,-0.019298067,-0.15869743,0.03740361,-0.46024448,0.18945697,-0.122908786,0.12932727,0.058983874,-0.027160801,-0.050596084,-0.07834457,-0.17779857,-0.18770038,0.017379884,0.44128752,-0.1079377,0.18255,0.0826453,-0.2559308,0.18805203,0.15773244,0.18489547,-0.21142487,-0.10200088,-0.2716137,0.13209018,0.09574394,-0.09014598,-0.4315849,0.011688914,-0.15267374,-0.05239632,0.03585538,0.08233802,-0.20176075,-0.08422674,0.032703083,0.3788955,-0.2721547,-0.112163216,-0.09025304,-0.062402874,-0.3693248,-0.16830264,0.19306523,0.14509785,0.2673871,0.005070771,-0.13669935,-0.27854517,0.27041224,-0.0681154,-0.16273093,-0.26509845,0.26086825,0.13946453,0.43978706,0.07147071,0.078843,-0.23726323,0.07690343,0.1434242,-0.13888092,-0.14588423,0.061003778,0.17306347,-0.13948615,-0.10526738,0.20035544,-0.074979685,0.14895059,-0.065348886,-0.16157185,0.031967685,-0.36766884,-0.11597777,-0.057534758,0.057601903,-0.16947256,0.13568862,0.3198059,-0.034127567,-0.011522502,0.09095,-0.18767002,-0.13926892,0.1856628,0.12031595,-0.06982708,-0.2900209,0.09014772,-0.24463443,0.033858553,0.28005496,0.04422193,0.15705627,0.062142704,0.022144262,-0.29536745,0.026251161,0.04226713,0.20413622,0.075573556,-0.33101648,0.05247154,0.15689977,0.6135294,0.16687389,-0.06550107,0.2784531,-0.08515848,0.2929072,0.17003751,-0.30149943,0.10347913,0.09379404,0.10175588,-0.13124177,0.16423804,0.26969942,-0.52069914,0.3859107,-0.0534063,0.040524412,-0.3207226,0.44764066,0.28890634,-0.055821843,-0.20234933,-0.12437119,-0.119921386,-0.26650003,0.036423177,-0.03338948,0.115847796,0.3500299,-0.08018826,-0.38120374,0.22147419,0.4641446,-0.10721632,-0.21080454,-0.2769214,-0.10513875,0.047746543,0.011182012,0.36036077,-0.1821289,0.16474085,0.084253535,-0.1282593,-0.030624866,0.13810104,0.21411899,0.15588512,0.22485062,0.12838109,-0.21479382,0.14124097,-0.24857228,-0.24001515,-0.041644815,-0.06196661,-0.08653486,0.12292066,0.101354435,-0.22374018,0.109619856,-0.020177636,0.005365463,0.12595,0.33835468,-0.3878921,0.56704456,0.08367195,-0.113353536,0.1153283,-0.29415655,0.39114305,0.003487911,0.08966361,-0.04638831,0.04389981,-0.084056854,0.21221907,-0.07252202,-0.2273613,0.1114723,-0.98696214,0.2064338,-0.01622264,-0.14635465,-0.18597765,0.11526573,0.08697211,0.2304415,-0.04460848,-0.32280132,0.1896466,-0.049351744,0.16597651,-0.16311443,-0.08896486,-0.38119185,-3.3586328,-0.34299797,-0.00013806664,-0.20555624,0.022226976,0.18428423,0.119490415,-0.19859098,-0.1067623,0.19752781,0.116029024,0.10654276,0.37527817,-0.15508012,0.23508942,-0.18103224,0.053543184,-0.14085323,-0.034213647,0.16243377,0.22734177,0.06484932,0.08889127,-0.14976157,0.42741978,-0.15165778,0.008174889,0.08680914,-0.08651773,-0.33996484,-0.004644897,-0.07469876,-0.5738701,0.16034041,-0.05904579,-0.2356709,-0.023504727,0.13594465,0.21732566,0.03979354,0.15503012,-0.18784872,-0.1109026,0.2705245,-0.19302814,0.10420751,-0.10907547,0.064900026,-0.07898085,0.05902299,0.16549726,0.06985246,-0.23525983,0.02307468,0.27999848,0.19492278,0.031253126,0.008903826,0.08849364,0.20051642,0.28543836,0.0013329136,-0.10776445,-0.25882027,-0.2542235,-0.15128697,-0.05022892,-0.102972254,0.21732195,0.060947776,-0.059351653,0.0061008274,0.27578825,0.04240516,-0.027229907,-0.030431533,-0.072015814,-0.3939553,0.22695053,-0.050429907,0.2900729,-0.11152998,-0.046608675,-0.18655339,-0.13608284,0.2689148,-0.045346554,0.06335098,-0.2222795,-0.24013521,-0.20549566,-0.22006479,-0.28396037,0.27529773,-0.09808991,0.094992235,-0.1860271,0.05381771,0.058767684,0.0016768547,0.2088764,0.07292951,-0.0111716725,-0.052289758,0.11485253,-0.12214279,-0.13306533,-0.044894926,-0.2227209,0.07369318,0.0931386,-0.02388961,-0.14638197,-0.10551451,0.031493373,0.0077982335,-0.04707646,-0.29097515,0.0008634858,-0.5466559,0.10567478,-0.05068729,0.0961676,0.12096542,-0.18375008,-0.0027289635,-0.063926786,-0.111055724,-0.0745317,0.06045184,0.1372335,-0.048447113,0.15814905,0.09866026,-0.25149688,0.1830121,0.1975469,0.18888229,-0.1979087,-0.024681615,-0.21734199,0.15742467,0.04253483,-0.11694459,-0.27964213,-0.20846978,-0.14315166,-0.17485325,0.019999735,0.011705051,-0.20096746,-0.07145655,0.10230027,0.22904597,-0.15191536,-0.161629,-0.1579848,0.014371675,-0.36419606,-0.078671925,0.22603615,0.14112966,0.35608384,-0.069853246,-0.23062731,-0.108377226,0.18996714,-0.0545428,-0.03226735,-0.22149093,0.29545328,0.030969584,0.34086958,0.032124296,0.028563363,-0.16094665,0.1801301,0.15827526,-0.1444886,-0.16269732,0.18042688,0.29575223,-0.14034565,0.06985841,0.30936012,0.010612666,0.10278617,-0.15523265,-0.08576322,0.05790167,-0.24399784,-0.015326801,0.005179013,0.086007714,-0.13720092,0.11437753,0.25675437,0.024494307,0.124172606,0.111635245,-0.27467665,-0.23956889,0.119377874,0.13662773,-0.046704255,-0.17444825,0.0805991,-0.172785,-0.050933003,0.23631133,0.07210971,0.14993511,-0.013975116,0.08226994,-0.19073324,0.017121144,0.0037561744,0.23699914,0.02354122,-0.28950533,0.061053827,0.071510814,0.488537,0.2841379,-0.07081666,0.17803137,0.068856955,0.21065193,0.09026219,-0.33665523,0.032631118,0.14713979,0.2017063,-0.027443072,0.054069404,0.23566262,-0.36270475,0.32841605,-0.14707458,0.13806383,-0.22545089,0.39088532,0.13149875,-0.09301844,-0.14391562,0.000594177,-0.16116008,-0.3053978,0.069532104,-0.018008474,0.07813931,0.23344386,-0.055715762,-0.4071566,0.13013877,0.41715726,-0.047066446,-0.057898473
alirocumab,-0.22427604,-0.09555877,-0.013806211,-0.033438962,0.39013743,-0.23753457,0.10807335,0.08996335,-0.14851977,-0.050753083,0.14268106,0.086257435,0.17147633,0.24748191,0.05815296,-0.06881018,0.11808603,-0.22765508,-0.27352342,-0.062596776,-0.041513994,-0.14512828,-0.014607949,0.12511237,-0.29809135,0.112374604,-0.010284599,0.015028469,0.10024005,0.35272226,-0.44415772,0.44089633,0.15457825,-0.25371355,0.09313861,-0.4026493,0.37190154,0.13156138,0.13363007,-0.057960413,0.062243488,-0.101468794,0.26070756,-0.10815919,-0.26557642,0.1051776,-1.0988019,0.15567672,-0.14189203,-0.02637034,-0.22102545,0.055736832,0.0878448,0.30114973,-0.02669295,-0.3712111,0.21003374,-0.045610666,0.16778862,-0.1560852,-0.06293535,-0.23214887,-3.595868,-0.23814596,-0.04771419,-0.26298976,-0.018851299,0.22300506,0.16190228,-0.1647459,-0.058486924,0.17554803,0.06234296,0.03386212,0.26888087,-0.15422918,0.13588902,-0.23392852,0.07385266,-0.09060761,0.14925177,0.010100567,0.16985229,0.14815317,0.039027005,-0.01858856,0.4535809,-0.13218713,0.048140746,0.10964889,-0.077857025,-0.28344977,0.008482736,0.0025952717,-0.6187888,0.16007848,-0.06992728,-0.18980718,0.13965741,0.0898593,0.19424999,0.13350284,0.17628914,-0.23064679,-0.10914047,0.41081882,-0.069605194,0.09922865,-0.045192793,0.026466737,-0.18187474,0.12033879,0.124102585,0.062365543,-0.32026717,-0.052419618,0.2636077,0.12578869,-0.089020744,0.17628264,0.04659835,0.24657738,0.3162404,0.17487437,-0.15590705,-0.37245762,-0.28567594,-0.04483876,-0.102764286,-0.086179584,0.27129447,0.084864035,-0.1355833,0.00772034,0.3042106,0.04790474,-0.02168594,-0.06012516,-0.04657304,-0.29045126,0.0879836,0.030780764,0.31695026,-0.08572661,-0.08526245,-0.13723257,-0.13647068,0.18750562,-0.07008442,0.04761617,-0.20317453,-0.22285503,-0.30468887,-0.21577354,-0.19381368,0.36362374,-0.125564,0.04808048,-0.2664046,0.13007964,0.110854164,0.058608264,0.29252908,0.07070584,-0.0053570946,-0.03920769,0.14837478,-0.14341742,-0.21996246,-0.011127565,-0.08590242,0.09206845,0.14441167,0.07607746,0.014867589,-0.08257343,0.02267537,0.031831745,-0.031861592,-0.178466,0.12570246,-0.4258754,0.13622339,-0.12486122,0.099809974,0.11174609,-0.04084758,-0.03554177,-0.0047355103,-0.17015482,-0.16472262,0.0059540523,0.15934104,-0.08388683,0.1517167,0.17105962,-0.20795573,0.13596071,0.17101151,0.16808422,-0.20119642,0.00845299,-0.2506019,0.14022097,0.007433922,-0.06763653,-0.32362184,0.052699294,-0.14089791,-0.16174883,0.07452294,0.061524615,-0.21651033,-0.03928199,0.032799587,0.3536747,-0.17451438,-0.10180302,-0.08483818,-0.012925922,-0.25468674,-0.15090917,0.20586179,0.11348348,0.29030645,0.034945052,-0.29246002,-0.15917714,0.23086876,-0.10177354,-0.09066554,-0.19246967,0.29190588,0.0964424,0.37800053,0.06879026,0.14412941,-0.19751933,0.08026283,0.12869385,-0.12518896,-0.12224838,0.116830654,0.15644626,-0.14944834,-0.06973264,0.3094317,-0.05802002,0.137058,0.021088578,-0.06473114,-0.01638784,-0.26935506,-0.110170156,-0.14855745,0.073444344,-0.22774285,0.14747903,0.32494634,-0.018176978,0.013477604,0.11892147,-0.24429435,-0.16316594,0.1457455,0.09679007,-0.023478677,-0.24331214,0.09483533,-0.19134209,0.016117126,0.24473582,0.048161782,0.11758907,0.075935215,0.0933597,-0.2431708,0.0029246847,0.084548,0.17742726,-0.020344172,-0.36199954,0.0096513955,0.14041482,0.55314994,0.17435211,-0.05238328,0.16720775,-0.080270894,0.19961573,0.1118359,-0.22720711,0.05310502,0.18584287,0.19408104,-0.13420671,0.13175602,0.17330915,-0.47209272,0.32690087,0.0026993954,0.05660521,-0.29811412,0.41724518,0.19191565,-0.10204695,-0.18258946,-0.08014689,-0.080228224,-0.19798046,-0.012612979,-0.038143717,0.08817311,0.22033451,-0.08898709,-0.4114794,0.10667248,0.5615815,-0.0974734,-0.18509851,-0.2062242,-0.1629939,-0.018462868,0.010629669,0.42832747,-0.18664695,0.21287736,0.14803547,-0.06765493,-0.07050872,0.19722152,0.1510067,0.22133002,0.2628379,0.08454766,-0.16661547,0.1318417,-0.28654167,-0.21549097,-0.10864158,-0.0099389665,-0.15454812,0.06204829,0.096364215,-0.18770647,0.05594958,-0.02477847,-0.0073042195,0.15937258,0.30090076,-0.36978522,0.4932078,0.06982564,-0.1801611,0.08412946,-0.33698797,0.3956866,0.09807391,0.085247375,-0.06455009,0.014507229,-0.1552405,0.27668694,-0.08620441,-0.27542233,0.12267069,-1.0997155,0.19012862,-0.04978502,-0.116527915,-0.21939634,0.08687944,0.14726873,0.31449676,-0.04464732,-0.37870398,0.17370649,-0.030214287,0.23459502,-0.17958987,-0.06567713,-0.30298117,-3.3932936,-0.26988983,-0.0065306975,-0.19263306,0.031057062,0.14877789,0.06345511,-0.16421296,-0.16823794,0.16912547,0.12339016,0.0819041,0.27438605,-0.19508636,0.18827909,-0.31544605,0.101080105,-0.1592815,0.055254288,0.027282868,0.19508807,0.16193204,0.01879631,-0.10544206,0.46077797,-0.14926822,0.021614904,0.07502394,-0.13130061,-0.31100672,-0.0061705634,-0.021521663,-0.6282053,0.20822687,-0.0446517,-0.2310286,0.14645348,0.075871676,0.18279497,0.11455988,0.26586616,-0.2671073,-0.13902552,0.37992916,-0.0398726,0.16561078,-0.103354946,0.025941161,-0.19763383,0.05772417,0.21623048,0.10367368,-0.331472,-0.029071825,0.27682406,0.12244855,-0.037003063,0.107777804,0.09551941,0.2571184,0.31183723,0.040660348,-0.19985463,-0.33765888,-0.2963191,-0.09316188,-0.09734274,-0.13651404,0.2945243,0.08481591,0.014662124,0.025523564,0.32610247,0.025729202,0.025552226,-0.04384074,-0.021534894,-0.35563207,0.21985644,0.03868438,0.323042,-0.09253263,-0.11928197,-0.15856093,-0.16959429,0.22401527,0.010380619,0.07029168,-0.24754418,-0.2430589,-0.2969089,-0.2496001,-0.16591172,0.35425305,-0.10650725,0.047448654,-0.28367555,0.12274685,0.16064693,-0.0032464536,0.2855145,0.06607,0.027647479,-0.04685926,0.12223892,-0.14257856,-0.20019542,-0.016708849,-0.18783472,0.06597648,0.0837609,0.089224674,-0.09800828,-0.08020153,0.063403614,-0.01988778,-0.04237588,-0.3193494,-0.011656125,-0.5533089,0.20406325,-0.12147375,0.13880761,0.1360828,-0.16747102,-0.042777922,-0.0067123044,-0.12673025,-0.12018378,0.102491945,0.14593242,-0.05668541,0.18135636,0.058959775,-0.26463354,0.13890064,0.15917817,0.15693486,-0.17199779,-0.07779503,-0.21465887,0.16144074,0.056533147,-0.121425666,-0.32591614,-0.12877427,-0.11725915,-0.12333401,0.029312953,0.019705933,-0.21676633,-0.08839048,0.056344774,0.29923418,-0.13460971,-0.14707014,-0.15583342,-0.04124178,-0.3113895,-0.10921186,0.24421702,0.104651935,0.33498046,-0.048083946,-0.26421103,-0.18004514,0.21624744,-0.073068924,-0.17409939,-0.20702064,0.32322875,0.07569583,0.34161982,0.059414923,0.10159194,-0.13447392,0.14302295,0.20402625,-0.17856091,-0.121182956,0.12969229,0.23924413,-0.17001551,-0.017062262,0.34637532,-0.050114598,0.13440612,-0.07320769,-0.09260319,0.03784775,-0.27558333,-0.11594546,0.011601726,0.0084047355,-0.15169613,0.115454085,0.35179955,-0.0077515948,0.039979573,0.10233344,-0.2665977,-0.13268152,0.2036683,0.15740937,-0.01129201,-0.24276797,0.06441727,-0.18114413,-0.011241665,0.31009212,0.034496587,0.14561258,0.009211264,0.048670758,-0.25223407,-0.0004724301,0.0035765339,0.17545241,0.04555883,-0.35219526,0.056609668,0.10335861,0.6160831,0.26559255,-0.04410657,0.23970379,0.04739792,0.2318776,0.10085313,-0.30171466,0.047235087,0.12357435,0.15352194,-0.09178887,0.09877738,0.2265123,-0.43637958,0.34111845,-0.10356637,0.06714527,-0.29444006,0.39819938,0.2031807,-0.06632069,-0.21142189,-0.06853347,-0.14994942,-0.27535343,0.045214843,-0.048197456,0.107651085,0.2791591,-0.043643855,-0.37710455,0.1719151,0.43307295,-0.08184703,-0.15281682
anifrolumab,-0.25381312,-0.13728786,-0.0199906,0.023798615,0.42621017,-0.18486492,0.12324262,0.118261404,-0.1683902,-0.07100594,0.12731355,0.18027757,0.17473766,0.2621957,0.056138728,-0.114130564,0.079265125,-0.20249903,-0.16507384,-0.10201822,-0.06987584,-0.16743,0.06792607,0.049337044,-0.28419292,0.04504893,0.024788398,-0.030358624,0.10563354,0.3183196,-0.4359112,0.54096264,0.09260016,-0.29136395,0.052536696,-0.33529967,0.3224142,0.08416914,0.13721557,-0.059939638,0.108532175,-0.07415395,0.22984064,-0.1199042,-0.25292104,0.108321965,-1.0940484,0.20395567,-0.12500353,-0.12300139,-0.17203926,0.058398906,0.1658727,0.25536183,-0.052089717,-0.3766924,0.20617001,-0.040584333,0.29076856,-0.17338318,-0.049921874,-0.3421526,-3.411954,-0.23861949,-0.010586076,-0.18764473,0.031341977,0.23268564,0.16287494,-0.23223495,-0.15074846,0.20404236,0.1710176,0.0948875,0.29690504,-0.19574416,0.20556194,-0.2811044,0.11981719,-0.13509482,0.1242976,-0.009395841,0.23829605,0.15195298,0.06564999,-0.045871943,0.47546366,-0.12417903,0.06603031,0.07195965,-0.17072642,-0.34763813,0.016733067,-0.01646346,-0.5440229,0.20075025,-0.08788831,-0.19009502,0.11013349,0.03202258,0.22730532,0.121189356,0.20147362,-0.12553869,-0.14740004,0.37551612,-0.11381339,0.22726528,-0.1271716,0.057692043,-0.15449658,0.06119358,0.21840952,0.11654151,-0.3063489,-0.08751967,0.31389236,0.09557957,-0.10226366,0.08011317,0.10804567,0.2679686,0.3417316,0.06985881,-0.11422478,-0.3096671,-0.26288915,-0.064066395,-0.11665598,-0.06333026,0.22312568,0.15755855,-0.037295774,0.004139461,0.34454346,0.02573844,0.0040389085,-0.068645924,-0.07268803,-0.40778664,0.16553695,0.081902705,0.2775972,-0.10884267,-0.07241167,-0.22470835,-0.17709959,0.21776114,0.0015039108,0.13173924,-0.18863015,-0.17412806,-0.2749055,-0.23983523,-0.17409062,0.34413633,-0.12735581,0.061452176,-0.3294947,0.11038122,0.11955747,0.06079696,0.29558012,0.11152583,0.010643605,-0.0070544104,0.12322053,-0.15307064,-0.25063115,-0.0013816378,-0.27368397,0.10051779,0.120325014,0.08893742,-0.17017117,-0.076745495,0.07942433,-0.05071049,-0.07773644,-0.22711895,-0.027794195,-0.5017222,0.20136969,-0.11933338,0.09785961,0.09476133,-0.11760827,-0.024210172,0.050487686,-0.16360366,-0.085791476,0.03151052,0.3430316,-0.14548257,0.20449933,0.09684677,-0.2645742,0.16068026,0.16451083,0.1749814,-0.17780904,0.0074578165,-0.29584152,0.15145017,0.10285871,-0.09379558,-0.28776035,-0.15324184,-0.13822243,-0.080594,0.06679154,0.039974313,-0.15881036,-0.0750025,0.06547056,0.29361156,-0.21475971,-0.12155513,-0.10718834,-0.06767721,-0.325654,-0.11517887,0.23057696,0.14680623,0.3030513,-0.032223467,-0.2207084,-0.20646662,0.240363,-0.03373835,-0.084933005,-0.24026623,0.2789338,0.035246447,0.34581247,0.038569648,0.11416279,-0.19000222,0.10021523,0.13318308,-0.14099371,-0.14841464,0.08177714,0.21621414,-0.17643309,-0.021300456,0.23935972,-0.04588348,0.105311565,-0.022064088,-0.101361394,0.07249787,-0.2831815,-0.07132031,-0.049865417,0.028068066,-0.21826595,0.12125423,0.32000282,-0.09286458,0.004581857,0.088684544,-0.21522395,-0.12607653,0.15485364,0.20825712,-0.039094012,-0.28556836,0.10602429,-0.18141986,-0.008953386,0.2851811,-0.04572609,0.114638045,0.056331735,0.062003493,-0.30063733,0.024696216,-0.03002067,0.17064129,0.09211652,-0.32994387,0.08172418,0.06491473,0.49752122,0.23053047,0.011936695,0.22595482,-0.019277096,0.17584173,0.06637653,-0.26803777,0.061550215,0.116634645,0.13042636,-0.100321114,0.13525598,0.19767487,-0.43448013,0.30966762,-0.073790886,0.08069231,-0.26070186,0.36210173,0.18241553,-0.112596616,-0.16676311,-0.042575862,-0.10897648,-0.22039378,-0.011334478,-0.01029354,0.087185234,0.2603368,0.009855207,-0.37192053,0.13775896,0.37288582,-0.09807044,-0.14865384,-0.30962908,-0.1732911,-0.090423666,-0.076340914,0.41956076,-0.1257646,0.25553837,0.16741183,-0.16259739,0.05392936,0.31243134,0.16392002,0.20719701,0.22844784,0.08024742,-0.24202509,0.1856508,-0.34807658,-0.25700876,-0.07042828,-0.05023465,-0.12956342,-0.026212875,0.14171712,-0.26361194,0.06939302,0.11197911,0.051726203,0.19765307,0.31223932,-0.38816583,0.33508822,0.044082593,-0.21063055,0.07187921,-0.38655436,0.44783843,0.20909917,0.09465405,-0.133454,0.026280519,-0.21260463,0.36529788,-0.079993054,-0.24394295,0.09479516,-0.84580725,0.14766136,0.059650335,-0.066587955,-0.29782277,0.07523894,0.11579629,0.26265195,0.024051866,-0.36582452,0.20150125,-0.03414016,0.29010797,-0.27101338,-0.056249555,-0.26280835,-3.321706,-0.23854859,-0.0056783026,-0.2562025,-0.05772409,0.11988145,0.050749484,-0.18289453,-0.12953772,0.20357502,0.014814403,0.016305102,0.30071843,-0.16184527,0.20664789,-0.30005816,0.08103191,-0.19287191,0.03830759,0.050265137,0.14994134,0.24708678,0.016477706,-0.16320412,0.46214718,-0.101774745,-0.0416027,0.114905946,-0.119225785,-0.22366849,-0.10499611,-0.0633716,-0.6619717,0.15978697,-0.04253316,-0.27200603,0.12145528,0.19012086,0.13199173,0.06085489,0.19259666,-0.17221922,-0.15977266,0.40640578,-0.06781847,0.015861869,-0.044965427,0.030180719,-0.09660019,0.048903387,0.160582,-0.0083116945,-0.29139158,-0.0016901096,0.17255285,0.2448084,0.0420194,0.18253192,0.100856304,0.28846648,0.30126232,0.158105,-0.2854884,-0.39679244,-0.35563788,-0.1420906,-0.03540608,-0.06977001,0.23335789,0.0387737,-0.054038674,0.0037674054,0.29548654,-0.031676088,0.030021548,-0.13116753,0.029590592,-0.25453103,0.10653542,0.07287167,0.31870553,0.0029246642,-0.13808548,-0.07596183,-0.23832151,0.29626137,0.008626926,-0.013372363,-0.26745957,-0.19431314,-0.25299677,-0.24536924,-0.27713698,0.31713066,-0.103185505,0.026796492,-0.18805408,0.0514652,0.122038126,0.012733435,0.26437148,0.08677422,0.04991544,-0.08389141,0.08347421,-0.1736696,-0.20345873,-0.08799233,-0.0051193545,0.064363,-0.0068457774,0.10636697,-0.015233935,-0.15884335,0.05734833,0.027200393,0.007485712,-0.20725702,0.08493247,-0.51597667,0.19125591,-0.14619301,0.0901011,0.09450184,-0.12480812,-0.116665296,-0.031830594,-0.08128855,-0.1393011,0.10939235,0.16399935,0.057263855,0.15120779,0.09374081,-0.19975369,0.08281311,0.16433656,0.12172815,-0.1080836,0.05741078,-0.24332947,0.0922974,-0.067884,-0.13371707,-0.39696804,0.06670121,-0.064782254,-0.08341751,0.008466814,0.03263075,-0.16914739,-0.14754398,0.09893059,0.35446107,-0.11417559,-0.13895033,-0.11674386,-0.04671451,-0.26013622,-0.12681167,0.19928427,0.12889862,0.41366884,0.018740203,-0.2849706,-0.14713727,0.20511793,-0.1208054,-0.27696794,-0.19916275,0.2652735,0.1891199,0.35096863,0.11436935,0.061039712,-0.044602785,0.08613647,0.15582706,-0.1690483,-0.103731684,0.17924717,0.25418994,-0.23538148,-0.0072885863,0.34385207,-0.099932194,0.18015,-0.12382845,-0.15342392,-0.100900084,-0.20211329,-0.15971816,0.011732022,0.04811314,-0.061116695,0.0871437,0.20959166,-0.029463459,0.052008297,0.07091435,-0.30554312,-0.087618545,0.12820907,0.030341867,-0.069014445,-0.22378851,-0.0821489,-0.17141479,0.017667303,0.27855122,0.07273073,0.27434915,0.010162208,0.05994959,-0.2591917,-0.047144383,0.080935426,0.22844484,0.051052958,-0.3407863,0.044820912,0.1229674,0.5252678,0.21304893,-0.014393784,0.25048393,-0.041992854,0.15706407,0.12666376,-0.28673118,0.0746014,0.063299276,0.22448254,-0.09714847,0.11849175,0.33623612,-0.42747682,0.38488546,-0.1499485,0.06656122,-0.2792581,0.41940093,0.1483142,-0.03756606,-0.19484879,-0.12238149,-0.13243121,-0.20994894,0.09848207,-0.030573716,0.13170423,0.25185186,-0.21359184,-0.31297183,0.2166395,0.4746387,-0.08544521,-0.17482542
atezolizumab,-0.24366602,-0.11465052,-0.024024256,-0.05458999,0.4275977,-0.21435364,0.11769934,0.124696225,-0.20366882,-0.024693904,0.17442708,0.08571227,0.24453223,0.26724038,0.055480853,-0.112848505,0.118145876,-0.24567623,-0.27235925,-0.08771685,-0.14432971,-0.14107807,-0.04382399,0.11531171,-0.34806624,0.11266409,0.09259692,0.02616594,0.0758682,0.34082258,-0.49243355,0.32262433,0.15904891,-0.3020721,0.071163744,-0.4485,0.36128995,0.14648545,0.120379075,-0.06987101,0.077478774,-0.13375945,0.33035117,-0.08601856,-0.28410733,0.04994941,-1.0019854,0.116257444,-0.12957408,-0.048975788,-0.26487803,0.0643898,0.11793972,0.3119527,-0.009602056,-0.35999233,0.26618505,-0.08106107,0.29047006,-0.20626721,-0.021719068,-0.23718464,-3.4175942,-0.20661357,-0.0310318,-0.2725431,0.012985304,0.21409765,0.13933025,-0.20724286,-0.11732387,0.18778488,0.054266077,0.045202967,0.2613328,-0.17957559,0.15241158,-0.3402446,0.09119278,-0.14166851,0.17007256,-0.03670331,0.15429215,0.21393283,0.011604221,-0.06937775,0.47470066,-0.09872553,0.010528527,0.1507578,-0.114782006,-0.21532208,-0.07017717,0.0016245609,-0.5803357,0.19093052,-0.0029453342,-0.16106696,0.13905147,0.1242834,0.14839786,0.12415102,0.2053521,-0.16305014,-0.14252757,0.43717125,-0.06501371,0.13282,-0.0185869,0.035701018,-0.1383201,0.084575444,0.12655121,0.020263718,-0.3352305,-0.15403043,0.19815059,0.16091287,-0.1422165,0.16216634,0.085881606,0.26540598,0.3473484,0.2827604,-0.15796839,-0.39404282,-0.31668505,-0.028662859,-0.086263396,-0.052876193,0.22470278,0.13465203,-0.11893771,-0.04715796,0.31074163,0.056258943,-0.015243664,-0.092697755,-0.0071968283,-0.2664779,0.087693885,0.107875705,0.32608706,-0.0435755,-0.12246199,-0.16522382,-0.16440842,0.18696277,-0.06706741,0.11436879,-0.21314809,-0.22678244,-0.2841751,-0.21746615,-0.18212172,0.34633636,-0.1323218,0.036597423,-0.28976014,0.068422824,0.101467535,0.052358482,0.26312047,0.08033598,-0.037816375,-0.061546188,0.1494844,-0.09897807,-0.2559165,0.021579366,-0.09948653,0.051989842,0.13514385,0.12580243,-0.015882993,-0.14754722,0.050586402,-0.016645363,0.0056230556,-0.107075304,0.08258375,-0.44552043,0.21294682,-0.13889526,0.08132312,0.14140345,-0.019741891,-0.036948342,-0.0052805725,-0.18051426,-0.19486275,0.006749154,0.2947818,-0.06860455,0.19326484,0.086660236,-0.22640742,0.15205127,0.16281962,0.1672622,-0.16844116,-0.003635546,-0.300558,0.08815108,0.058331285,-0.06542758,-0.40879446,0.20173594,-0.11679308,-0.12796172,0.08896467,0.08302154,-0.15372312,-0.036925014,0.056838367,0.35735393,-0.1978997,-0.108452186,-0.099070825,-0.07833526,-0.23171829,-0.13086183,0.1821043,0.13799994,0.2703656,0.051316686,-0.28442687,-0.21683085,0.2581775,-0.07228965,-0.14482,-0.21706592,0.25907335,0.094822675,0.38046026,0.06457003,0.10224554,-0.21331741,0.043312255,0.1863486,-0.11508635,-0.16395804,0.11944072,0.21378729,-0.17240448,-0.11193553,0.28451255,-0.059944037,0.16904093,-0.04024581,-0.19052316,-0.0042047086,-0.26375505,-0.14839692,-0.09893046,0.06786235,-0.15509689,0.12137991,0.24999087,-0.02407894,0.006129498,0.07726642,-0.20930818,-0.11279706,0.168989,0.070065804,-0.05033369,-0.22433892,0.072439596,-0.22690262,0.051887244,0.26997602,0.050812878,0.16371807,0.09112807,0.07526909,-0.30549595,-0.031973906,0.031545814,0.13899106,0.045778427,-0.3318073,0.01824712,0.12071138,0.60121936,0.16818683,-0.08245396,0.25480035,-0.116501905,0.20870098,0.14782749,-0.24240232,0.13509701,0.10133402,0.16928805,-0.12223114,0.1304013,0.21983218,-0.48134932,0.32457113,-0.0062876544,0.030846888,-0.30874062,0.39526582,0.22119096,-0.08831819,-0.15875052,-0.13360654,-0.062314417,-0.20443138,0.0044116247,-0.058953773,0.044473663,0.24406078,-0.117297724,-0.42801842,0.15035209,0.4981103,-0.061415065,-0.22936831,-0.33189085,-0.10811405,-0.02510963,-0.034544136,0.3879955,-0.14527068,0.19179583,0.12945959,-0.1521733,0.011687182,0.21447034,0.24120328,0.22003764,0.23139791,0.080271885,-0.19880621,0.14989097,-0.29275766,-0.27757105,-0.09262957,-0.110178284,-0.15778336,0.05240257,0.063998535,-0.28585774,0.11202705,0.055458862,-0.016167713,0.1430999,0.35152614,-0.43114096,0.4305636,0.042526495,-0.14080219,0.11806046,-0.34601295,0.40213832,0.05413485,0.08029482,-0.052650765,0.054553647,-0.14941257,0.35830966,-0.09499912,-0.25301832,0.09402001,-0.91529673,0.1757908,0.047426857,-0.06562587,-0.19618964,0.07692696,0.07115209,0.30133685,0.011765542,-0.3416542,0.21663329,-0.08537512,0.25207537,-0.17822976,-0.04679861,-0.35877132,-3.194771,-0.31701455,0.026051063,-0.24864595,-0.020718055,0.21511988,0.09870771,-0.21871805,-0.13513823,0.23816627,0.08823684,0.04209057,0.3286995,-0.15514852,0.2696212,-0.30789876,0.12077057,-0.1952103,0.016383398,0.03169514,0.20824358,0.18158205,0.039668012,-0.16338001,0.42591205,-0.1187801,-0.0055868463,0.0915656,-0.138102,-0.29941624,-0.04225329,-0.11753494,-0.63142985,0.18169746,-0.025648527,-0.21836032,0.09004951,0.15018839,0.17842059,0.054878112,0.22517656,-0.21308865,-0.15260458,0.37771934,-0.11495722,0.11474918,-0.07594359,0.052013084,-0.09012222,0.09264132,0.1466026,0.07268692,-0.26035514,-0.07823823,0.26986894,0.1677705,0.0017172076,0.056409243,0.07396549,0.27086738,0.32195222,0.07145749,-0.19977608,-0.30117533,-0.32156685,-0.06300503,-0.06048616,-0.04793818,0.23837095,0.11164532,-0.05061386,-0.052680977,0.3142806,0.06416008,-0.070305504,-0.012435827,-0.044259593,-0.31252864,0.15384232,0.035818856,0.30460545,-0.06201947,-0.09083694,-0.21463504,-0.17262307,0.30016017,-0.058118112,0.07603554,-0.26652098,-0.2015736,-0.24872187,-0.15326181,-0.26834124,0.30160087,-0.12490126,0.058464125,-0.22058384,0.05127499,0.10140319,0.0008657647,0.22546488,0.049749527,0.01564994,-0.0616033,0.11562094,-0.09751638,-0.14447023,-0.01845037,-0.13743848,0.050458256,0.049352642,0.06293418,-0.11309194,-0.15935163,0.110785834,-0.011224018,0.0051454096,-0.22453393,-0.0046017687,-0.5607693,0.17833239,-0.045674816,0.104358934,0.13875149,-0.17563903,-0.046598658,-0.07590204,-0.16028662,-0.13919382,0.06553087,0.20133455,-0.021972978,0.21296057,0.06991184,-0.28018904,0.18974058,0.22947547,0.17362274,-0.17072845,-0.06364975,-0.29368794,0.06678887,0.031902645,-0.116047546,-0.39604166,-0.013743027,-0.124181055,-0.15943092,0.0786083,0.027606353,-0.18643595,-0.090836465,0.08622831,0.29660985,-0.12939294,-0.19281434,-0.13012357,-0.04684662,-0.30051017,-0.12091239,0.21407892,0.13799712,0.3520107,-0.051937576,-0.25706556,-0.14711352,0.21346767,-0.030429395,-0.16623725,-0.22787678,0.2726082,0.03463284,0.38630307,0.06818799,0.06436686,-0.16030872,0.1025344,0.1813036,-0.16048859,-0.20605376,0.14492367,0.31128076,-0.18070039,-0.023795074,0.34824884,-0.041723777,0.11704834,-0.16313244,-0.13832308,0.068043545,-0.26502356,-0.13156386,-0.017417932,0.029274179,-0.10924703,0.16510382,0.261049,-0.011004932,0.08835982,0.045707013,-0.23070063,-0.20411988,0.22510172,0.12183765,-0.08089593,-0.17399518,0.04174056,-0.20720616,-0.041867845,0.25677738,0.04387601,0.2178081,0.00093774486,0.08105899,-0.226357,-0.045185108,-0.008756593,0.19724827,0.038747393,-0.2797,0.046749484,0.13697317,0.5794262,0.28042436,-0.06790015,0.22374597,0.019223364,0.22059864,0.09403303,-0.32950443,0.040223625,0.10257252,0.23212269,-0.025793111,0.07949619,0.27706423,-0.39791507,0.3378523,-0.1672719,0.05817125,-0.3057037,0.41267434,0.16902931,-0.07714894,-0.16058265,-0.111778565,-0.19132023,-0.2149531,0.004779161,-0.03959755,0.073884666,0.3026558,-0.13749833,-0.40206677,0.19012143,0.44461295,-0.06163129,-0.1538777
bapineuzumab,-0.245398,-0.13307928,-0.02352261,0.001534458,0.4462478,-0.24143772,0.09623218,0.12669197,-0.17774412,-0.026248476,0.16287145,0.080855444,0.20484696,0.24785829,0.06569948,-0.091980785,0.13135418,-0.25363368,-0.2701529,-0.055205427,-0.06747757,-0.14710166,-0.030915404,0.086373955,-0.31006438,0.11149713,0.027249714,0.0566047,0.089171864,0.30079013,-0.41318682,0.4203458,0.15472461,-0.2790963,0.08846854,-0.43403214,0.38588193,0.10625979,0.12194226,-0.058474835,0.03578577,-0.1278297,0.31494763,-0.068400405,-0.2650871,0.037056692,-1.0785224,0.14075838,-0.11858237,-0.0675166,-0.21850571,0.080888964,0.14154479,0.33745012,-0.028813142,-0.40026873,0.24095167,-0.06931348,0.22843653,-0.23985076,-0.057877578,-0.27801162,-3.5147161,-0.2486697,-0.036703896,-0.25972506,-0.010768219,0.21683742,0.09023188,-0.17770135,-0.10698421,0.20908548,0.054592066,0.062692255,0.26224265,-0.16145827,0.13873722,-0.31648716,0.07853233,-0.093672976,0.16564672,0.022478485,0.19133034,0.20386422,0.025071427,-0.062171414,0.4329814,-0.102686346,0.039486606,0.15960069,-0.102204874,-0.22884603,-0.06928151,-0.0054203705,-0.65178424,0.17794107,-0.040829603,-0.2080247,0.21113884,0.08577629,0.20581102,0.16465801,0.23401587,-0.17061926,-0.098771796,0.47949547,-0.024526948,0.12079389,-0.063650094,0.026856177,-0.1546041,0.06879811,0.16100222,0.04613233,-0.40238976,-0.12638701,0.23968364,0.079937726,-0.12906405,0.14953792,0.052487765,0.25437784,0.34404245,0.20196384,-0.16143647,-0.3740938,-0.26439038,-0.015131307,-0.084634595,-0.052673407,0.24107745,0.099493876,-0.07973722,-0.020394085,0.3078351,0.033538148,-0.021362023,-0.06450651,-0.0147540895,-0.28553593,0.09120323,0.10345153,0.32056478,-0.02621222,-0.11883867,-0.1530487,-0.14828786,0.15709244,-0.037679967,0.107787,-0.19891761,-0.21537374,-0.27793872,-0.19197144,-0.20568073,0.35909656,-0.14147276,0.028278887,-0.32679576,0.07589305,0.07182293,0.043685313,0.2859632,0.053019106,-0.023282971,-0.071692,0.1287842,-0.0831952,-0.24920951,0.013156783,-0.10842746,0.06731701,0.1596245,0.1345114,0.0022184588,-0.104342096,0.032868594,-0.020175783,0.0024649936,-0.19449419,0.097081505,-0.4119132,0.17227396,-0.15191779,0.08890615,0.18698739,-0.079633966,-0.051695157,-0.019351985,-0.13815442,-0.16832162,-0.00772655,0.2587322,-0.075217046,0.19834833,0.10805002,-0.20497915,0.13378054,0.20380382,0.19096443,-0.1749159,0.010981852,-0.29347807,0.09871669,0.035020284,-0.07957236,-0.4256951,0.05329528,-0.06710533,-0.14322643,0.07498457,0.07364791,-0.21447767,-0.049330246,-0.00025381963,0.345233,-0.16228049,-0.08713411,-0.09565697,-0.049104072,-0.25671375,-0.12875201,0.18483573,0.073383726,0.3056373,0.029585198,-0.30967084,-0.1897528,0.26187524,-0.037799798,-0.132117,-0.17248784,0.3051271,0.13847665,0.3661856,0.07461376,0.10341292,-0.24217099,0.06453715,0.16065589,-0.1426907,-0.14595608,0.10883711,0.19789277,-0.17396091,-0.10343411,0.32433093,-0.067730725,0.13471693,0.0025469987,-0.14067994,-0.028238965,-0.2695181,-0.12022116,-0.12789527,0.03963657,-0.18048319,0.108155295,0.3164732,-0.0075750602,-0.028192144,0.07927343,-0.22088593,-0.14021412,0.19698122,0.08574313,-0.03498761,-0.27260613,0.087181844,-0.17980036,0.016666263,0.2589132,0.042246412,0.12095622,0.09671168,0.062082447,-0.29533842,0.0008530276,0.08715978,0.14269026,0.03605251,-0.3402608,0.03352323,0.16228212,0.5867711,0.16644272,-0.0366511,0.25007328,-0.06672262,0.23633282,0.10201403,-0.2427046,0.061916053,0.14348058,0.18315987,-0.16163927,0.12245471,0.21266435,-0.54057604,0.3581574,0.032706637,0.09061918,-0.32630718,0.4225574,0.20472509,-0.07661314,-0.18816721,-0.07471226,-0.091072775,-0.16657664,-0.026029613,-0.053130623,0.060718883,0.2421432,-0.103181824,-0.38500497,0.12402065,0.49311075,-0.07052665,-0.24225888,-0.33160728,-0.14764132,0.039788157,0.027071431,0.36558986,-0.22529276,0.29116508,0.153247,-0.14780678,0.01902083,0.18194863,0.22607377,0.21965633,0.30141783,0.085740685,-0.21075873,0.15837005,-0.28473327,-0.23897217,-0.076998934,-0.14634892,-0.1822737,-0.023883654,0.018967718,-0.2980821,0.14498703,0.0106601585,0.023216745,0.19070223,0.31959343,-0.30766195,0.46443018,0.041645583,-0.22174747,0.09878022,-0.3609073,0.4188923,0.10335523,0.042581942,-0.057246108,0.0040489314,-0.09774624,0.24876928,-0.01492674,-0.22150156,0.063635625,-0.9207261,0.14215264,0.009836482,-0.0968458,-0.19747779,0.05072627,0.08760101,0.39310598,0.042692978,-0.3542227,0.16360377,-0.019202117,0.31676942,-0.28339565,-0.092443384,-0.32278752,-3.351123,-0.24554732,-0.08593086,-0.23111235,-0.060347438,0.123298,0.02025853,-0.17490797,-0.11662879,0.24194327,0.113708004,0.08814488,0.33524027,-0.124902524,0.21337329,-0.36287186,0.12364538,-0.15634732,-0.011080565,-0.011808774,0.24248497,0.16113575,0.023752496,-0.16713192,0.42769203,-0.12464918,-0.0010717362,0.13280126,-0.098204456,-0.34033775,-0.078650974,-0.046397056,-0.62723064,0.16524617,-0.0032998302,-0.18693945,0.16867813,0.15446486,0.13955592,0.060514864,0.25080308,-0.19067462,-0.056283962,0.441262,-0.06411574,0.14083233,-0.100379035,-0.0046665478,-0.18926628,0.052387733,0.18685232,0.03150896,-0.26979285,-0.029824298,0.20182249,0.09634362,-0.037720058,0.07711355,0.0875969,0.24113178,0.34384257,-0.013921793,-0.22103143,-0.30020046,-0.3006363,0.0065748985,-0.03717934,-0.06364237,0.18830319,0.09724997,-0.013029409,0.037662912,0.23139392,0.06831695,-0.018744553,-0.16179265,-0.042601116,-0.38218275,0.13412564,0.08575724,0.32430062,-0.074144684,-0.07852276,-0.1423982,-0.19874409,0.21932633,0.0042642024,0.12578934,-0.27170682,-0.23081891,-0.29877672,-0.20577802,-0.16157123,0.35661307,-0.07012764,0.041546475,-0.305455,0.040857557,0.13958304,-0.0072259265,0.16526829,0.06507649,0.0685294,-0.026262555,0.14423023,-0.15059389,-0.25905785,0.02859365,-0.18120405,0.14156829,0.09218972,0.10023277,-0.14329223,-0.0955326,0.11203097,-0.0432153,-0.014228017,-0.27810502,0.04022301,-0.55979663,0.26336938,-0.10130464,0.06399175,0.101372235,-0.08783154,-0.08178401,-0.04461795,-0.16046277,-0.10614281,0.011756437,0.28342012,-0.033374865,0.15005305,0.08064182,-0.23801616,0.22912693,0.20079811,0.22340584,-0.21361081,-0.03168621,-0.29516235,0.11758367,0.055875115,-0.10862408,-0.32183927,-0.034215156,-0.13068162,-0.028065512,0.021672174,0.097067535,-0.15562339,-0.12165713,0.08045537,0.3184001,-0.20755103,-0.13025379,-0.099485025,-0.09708406,-0.289537,-0.17961621,0.21489358,0.08011168,0.36128494,-0.037842337,-0.19712925,-0.22617531,0.20570466,-0.045621954,-0.17320769,-0.27492884,0.3303809,0.13981962,0.36647946,0.03505073,0.11986922,-0.18612036,0.13410363,0.18694158,-0.10889162,-0.14849032,0.08719893,0.28549784,-0.23309603,-0.04378851,0.26435792,-0.07324214,0.17788187,-0.1344976,-0.1708131,-0.0204256,-0.29711297,-0.15288249,-0.049801458,-0.045141034,-0.17106305,0.081750944,0.28094083,-0.067706436,0.08631102,0.019715307,-0.23782168,-0.16533677,0.16722551,0.1448926,-0.04139282,-0.27509838,0.017054139,-0.1650535,0.0070856595,0.3064153,0.021337748,0.24712251,0.031169847,0.0370172,-0.2351078,0.0027401638,0.07515878,0.2020139,0.082914874,-0.36647728,0.047074676,0.13037181,0.5143015,0.14395483,-0.09754353,0.34757787,0.04284271,0.24336848,0.08882831,-0.3411115,0.13570718,0.11063067,0.19704013,-0.11983527,0.15038688,0.20943223,-0.3954634,0.3873179,-0.1431054,0.04867736,-0.3275477,0.38329506,0.18300843,0.00065645523,-0.1884334,-0.09969939,-0.13441615,-0.18930618,0.12891221,-0.042557895,0.09531486,0.3241315,-0.116188295,-0.27164856,0.20084977,0.45924425,-0.07647158,-0.11897691
basiliximab,-0.25436032,-0.09792431,-0.019647835,0.019568933,0.43227297,-0.17718287,0.0835461,0.084667,-0.21326725,-0.069547616,0.08848312,0.1552936,0.24016283,0.26793417,0.031022245,-0.10291626,0.16535018,-0.21705657,-0.2711861,-0.10459386,-0.08971373,-0.13511583,0.004491119,0.12320551,-0.3028099,0.10098946,0.0392339,0.011163753,0.08139947,0.3273766,-0.4708413,0.43100372,0.07480911,-0.2531895,0.068062134,-0.3931388,0.36604765,0.04592686,0.1323115,-0.043004435,0.05480106,-0.14427967,0.2800606,-0.11736228,-0.22560355,0.06991494,-1.0617969,0.12699546,-0.11387363,-0.07994722,-0.19292003,0.06907243,0.13776854,0.3110295,-0.029848238,-0.37958646,0.2467046,-0.11696202,0.24474606,-0.16855988,-0.069273114,-0.30150187,-3.4812298,-0.25832924,-0.03066154,-0.27292705,-0.02010749,0.2539641,0.19339153,-0.22141288,-0.14293145,0.19953658,0.092362866,0.074737184,0.2923855,-0.2022476,0.1642048,-0.2966104,0.086829096,-0.08464411,0.13854326,0.06252975,0.20999599,0.20093669,0.035511956,-0.15355083,0.44172415,-0.1192396,0.031524535,0.17873861,-0.1254222,-0.24216801,-0.018877415,-0.03411919,-0.6068516,0.1531402,-0.053697664,-0.12827843,0.123047546,0.09004287,0.17372236,0.15575004,0.21337317,-0.21428987,-0.07595662,0.41285074,-0.103347726,0.16645056,-0.07420246,-0.025011433,-0.15660597,0.124315016,0.1745845,0.073479705,-0.3415305,-0.122073814,0.28890994,0.13535789,-0.11407574,0.030874776,0.064929165,0.23542391,0.33156773,0.12209084,-0.12641397,-0.3422105,-0.2823713,-0.015028112,-0.09098115,-0.07299764,0.2719617,0.06457525,-0.08310119,-0.040844087,0.2890754,0.020362034,-0.044189334,-0.054951273,-0.033815727,-0.3469248,0.13458209,0.13197641,0.32489282,-0.043958053,-0.053765003,-0.18309866,-0.13129628,0.16529484,-0.06658526,0.12789623,-0.2501336,-0.24408607,-0.28285086,-0.1495321,-0.12927222,0.29779235,-0.1484862,0.08301312,-0.27003995,0.094506696,0.097641386,0.008713079,0.23026216,0.03610965,-0.052169144,-0.09820108,0.10510939,-0.059808254,-0.24147391,0.037143394,-0.15232947,0.054589376,0.12794998,0.05686598,-0.06392161,-0.094679505,0.11896877,-0.0147784185,0.028936882,-0.16244067,0.021668311,-0.5172984,0.18701407,-0.049169276,0.1520193,0.12700827,-0.080802076,-0.037797216,-0.0308242,-0.18946278,-0.11021806,-0.004710495,0.31085107,-0.08564722,0.16226904,0.07127221,-0.28429863,0.1999372,0.21170177,0.16360474,-0.17062062,-0.055812214,-0.29903156,0.12770174,0.134788,-0.07710541,-0.3680013,-0.05011819,-0.18200265,-0.15751895,0.08747993,0.0029702694,-0.1743214,-0.07849679,0.042567644,0.33307016,-0.14021559,-0.13999942,-0.10296686,-0.0678976,-0.27241367,-0.111313805,0.19165161,0.18318455,0.26421157,-0.038331047,-0.27262005,-0.21795885,0.2818354,-0.014192836,-0.05277709,-0.22783482,0.3064463,-0.0006169427,0.399383,0.038613502,0.12971207,-0.2235874,0.0972012,0.15619725,-0.11021377,-0.1576537,0.10818385,0.2509066,-0.15732816,-0.10982542,0.2666578,-0.053755555,0.108544685,0.026186388,-0.08949424,0.103531405,-0.30237645,-0.10643929,-0.12839669,0.07969025,-0.1752877,0.14012331,0.32041213,-0.064007536,0.029943654,0.110624574,-0.21690764,-0.17934188,0.18338345,0.15058649,0.017040156,-0.22886288,0.12303559,-0.267373,-0.00014198336,0.2461664,0.038120393,0.1455591,0.03762302,0.089228556,-0.26834512,0.06455742,-0.0075123813,0.19230664,0.03469247,-0.26985848,0.035509255,0.11483954,0.5845745,0.2249035,-0.07241842,0.23775385,-0.006635943,0.22424594,0.10844761,-0.26850033,0.08213621,0.1443982,0.1905354,-0.10098358,0.1321108,0.23240864,-0.44827285,0.37111032,-0.04086675,0.05627334,-0.2869522,0.41136867,0.22035752,-0.12780593,-0.14588627,-0.09984,-0.12681119,-0.21738684,-0.055033788,-0.0010466494,0.06288267,0.23022,-0.056352343,-0.44830137,0.12216432,0.44788054,-0.07014696,-0.16613053,-0.33566064,-0.0048805703,-0.061543185,-0.030814502,0.46503317,-0.07308967,0.14696774,0.06860532,-0.25747815,-0.0070273555,0.13347986,0.22079307,0.1612903,0.2857505,0.037730135,-0.19574428,0.2134359,-0.2521728,-0.2788317,-0.102699555,-0.07837408,-0.12163162,-0.06245713,0.09703326,-0.277939,0.09009944,0.013197573,0.052864455,0.08376065,0.3562067,-0.447033,0.45268708,0.15417363,-0.12537216,0.14129056,-0.40296444,0.3665016,0.10004819,0.10078789,-0.09718552,0.05945333,-0.1463556,0.29571408,-0.092524774,-0.21436566,0.08342596,-0.89839494,0.1324509,-0.03776401,-0.007833537,-0.21160354,0.079298206,0.16131012,0.16037281,0.014827811,-0.39366734,0.23870736,-0.13385504,0.20961541,-0.15970105,-0.06598653,-0.30836612,-3.2455268,-0.26552698,0.06367355,-0.2280539,-0.009094264,0.23754424,0.19859259,-0.21552764,-0.04178994,0.21253935,0.095989734,0.01893464,0.37414315,-0.13593219,0.20385456,-0.23440911,0.13755642,-0.19184168,0.10970979,0.10065277,0.107541285,0.21470635,0.116905935,-0.1586873,0.46112898,-0.07373733,0.035347197,0.11770597,-0.1420231,-0.2479636,-0.014811695,-0.14302357,-0.6259116,0.09214432,-0.101522535,-0.2358838,0.08823005,0.14051503,0.1910958,0.0061316993,0.17632447,-0.19032647,-0.14309251,0.34993824,-0.14559297,0.102326974,-0.14780979,-0.029508026,-0.0792494,0.116951756,0.102922745,0.07848947,-0.27413464,-0.15105557,0.34043634,0.13456598,0.015050058,0.04029757,0.10815426,0.29699275,0.27093375,0.1262423,-0.16983794,-0.3316156,-0.2978436,-0.11724095,-0.0071483934,-0.056399968,0.22082175,0.058411643,-0.14397252,-0.1271552,0.3474057,0.06492623,-0.047858126,-0.08142328,-0.062041577,-0.32364735,0.13979356,0.08307861,0.27325907,0.019132473,-0.06896763,-0.1781424,-0.13878636,0.3084749,-0.034215733,0.086956516,-0.25363746,-0.23776399,-0.22992308,-0.14689575,-0.27617955,0.27569887,-0.16718754,0.10743269,-0.23183805,0.07457376,0.10537997,0.06613253,0.2676477,-0.037060704,0.021482151,-0.05167345,0.11042419,-0.11846667,-0.17631772,-0.022225983,-0.14851792,0.033133887,-0.004711479,0.052837975,-0.12159698,-0.122376606,0.055263672,0.015743503,-0.0015326142,-0.20968452,0.07041456,-0.5346191,0.13519762,-0.109026745,0.05147497,0.22556442,-0.14309424,-0.056289665,-0.025735246,-0.082866326,-0.11594801,0.039866492,0.17536288,-0.024921399,0.17004822,0.11132048,-0.30767247,0.17248653,0.25078088,0.12082588,-0.13802482,0.024555203,-0.31924862,0.035466548,0.02022417,-0.14777578,-0.3458987,-0.029699106,-0.13892326,-0.23564497,0.085923865,-0.055381592,-0.21523753,-0.07325815,0.1288959,0.2910919,-0.12352307,-0.21029109,-0.10324412,-0.020546176,-0.20356148,-0.11694464,0.1884691,0.1653988,0.36069363,-0.026339265,-0.33459935,-0.08117111,0.2396207,-0.04555053,-0.09531406,-0.19656032,0.3072004,0.0056089815,0.41974342,0.028107094,0.084251404,-0.19805574,0.120368965,0.1490803,-0.14001693,-0.12491354,0.12894997,0.3191862,-0.23015568,0.023454785,0.34132716,-0.049273577,0.097678035,-0.10782267,-0.07405754,0.09946406,-0.21073969,-0.054018196,-0.057688393,0.033655647,-0.12675253,0.10196169,0.2422997,-0.02863469,0.093114,0.034811884,-0.30872428,-0.14804417,0.17505439,0.08381971,-0.031781457,-0.17618561,-0.025112094,-0.17657049,-0.0571694,0.22245201,0.035844125,0.15368441,0.052763376,0.07275966,-0.21630313,0.017630687,0.04515757,0.1954049,-0.010341489,-0.3183123,0.08123546,0.10099193,0.49847704,0.26438743,-0.01575924,0.23242824,-0.05227166,0.19407512,0.10528935,-0.31956938,-0.05279949,0.12599272,0.31968683,-0.053187054,0.070564106,0.2259179,-0.38493273,0.4171464,-0.1065108,0.14036661,-0.25090975,0.42062077,0.08725273,-0.122592315,-0.14698832,-0.061699435,-0.17279996,-0.21277978,-0.009631957,-0.013928812,0.082194015,0.23808545,-0.18074685,-0.40196222,0.15771793,0.5121717,-0.06090109,-0.15673469
bavituximab,-0.31165886,-0.056391016,-0.0013005574,0.07212002,0.47657254,-0.16021474,0.09043121,0.056397934,-0.23909149,-0.1315882,0.043794442,0.15288328,0.23236036,0.27346486,0.07717041,-0.079652734,0.17040844,-0.2252374,-0.30549648,-0.10242632,-0.07274623,-0.12547784,0.024034854,0.05073653,-0.31424236,0.11876652,0.017960059,-0.0029338102,0.104565635,0.3549731,-0.45384482,0.52849555,0.07393229,-0.23356202,0.1243134,-0.362387,0.33173516,-0.048678048,0.13928562,0.0104710525,0.101388775,-0.08796045,0.18426763,-0.14131504,-0.19345054,0.06252257,-1.1054381,0.13968486,-0.1590636,-0.04717425,-0.15690541,0.07127197,0.109031886,0.32677504,-0.01000792,-0.40045345,0.21886267,-0.14371538,0.28351986,-0.19531232,-0.09412012,-0.3455848,-3.3982253,-0.21497564,-0.031414237,-0.2556541,0.026794536,0.27966365,0.15948787,-0.21828799,-0.10391041,0.25459424,0.08549093,0.080831505,0.27232045,-0.17757317,0.14700302,-0.26771012,0.17829002,-0.13528152,0.1386836,0.04844217,0.21659413,0.19409864,0.03402773,-0.03686638,0.42883423,-0.122598395,0.05625149,0.19966736,-0.14217612,-0.30880788,0.004470713,-0.06014102,-0.59882843,0.14814106,-0.043108974,-0.12674738,0.1658557,0.110763244,0.2523144,0.1543274,0.22850806,-0.20167199,-0.10269448,0.44881326,-0.06181907,0.22811322,-0.13474675,0.004220449,-0.14817742,0.12861547,0.1595034,0.10794274,-0.3190164,-0.15642904,0.36590767,0.099040695,-0.118189305,-0.007922893,0.053782847,0.22543909,0.31639153,0.055554934,-0.1215667,-0.287021,-0.25614265,0.034348026,-0.02214821,-0.055116594,0.19506387,0.13738187,-0.08787063,-0.05426122,0.30123088,0.07277058,-0.09108253,-0.01858359,-0.061943844,-0.38513744,0.14397144,0.11234037,0.32349235,-0.055374306,-0.02552557,-0.16920653,-0.11282417,0.11752217,-0.022715101,0.20222655,-0.22980754,-0.22565213,-0.26217946,-0.13049558,-0.17874463,0.35814413,-0.13740428,0.13015448,-0.31978163,0.06162373,0.09778489,0.002864637,0.18792658,0.075066924,-0.027306834,-0.12122453,0.16521098,-0.07673303,-0.30323952,0.055575076,-0.19413202,0.11479975,0.16316251,0.03133683,-0.13071553,-0.061870273,0.10684462,-0.034628697,-0.0033059567,-0.1773675,0.061728653,-0.55946213,0.2335488,0.012851169,0.08951361,0.16156225,-0.10556601,-0.088717796,-0.010811448,-0.20958693,-0.15154381,-0.03312662,0.24891433,-0.13661893,0.18571578,0.07753051,-0.2979937,0.2243011,0.21757992,0.24142389,-0.24642968,-0.09207591,-0.34465206,0.115704216,0.1766786,-0.062407184,-0.34012365,-0.06399323,-0.2167696,-0.21327238,0.07510648,0.0108242,-0.15967546,-0.06457215,0.014787328,0.3173889,-0.14915065,-0.120236926,-0.10190439,-0.11368189,-0.27401054,-0.14969508,0.16231853,0.13417514,0.27047858,-0.07799014,-0.29028186,-0.210584,0.27635998,0.030791532,-0.06716939,-0.23344912,0.2583505,0.0072855195,0.33774477,0.033562616,0.1319312,-0.2693964,0.15940891,0.1674957,-0.10960496,-0.19566831,0.10345085,0.27666205,-0.13785976,-0.08325745,0.22945982,-0.07554463,0.038695637,-0.018489765,-0.09901726,0.14652738,-0.34352505,-0.088864595,-0.10644673,0.06524693,-0.18434842,0.11235172,0.40923023,-0.06309104,0.010470647,0.09720628,-0.24285538,-0.19584848,0.24580695,0.18346769,-0.029814236,-0.18834561,0.15264188,-0.26572734,-0.015330155,0.2584583,0.008507135,0.06279204,0.00024570228,0.08909982,-0.23749937,0.0541067,-0.0014015982,0.1639816,0.04331607,-0.29039368,0.060356434,0.13214655,0.5918414,0.20447172,-0.07541052,0.29096803,0.0082553625,0.20871018,0.05948003,-0.33040208,0.057559416,0.13395694,0.19163078,-0.12454953,0.14950576,0.16377334,-0.47423252,0.34267437,-0.03086446,0.071186416,-0.32578832,0.41887203,0.2588325,-0.13381147,-0.13367103,-0.07883261,-0.11248794,-0.20029058,-0.032797433,0.009644222,0.021809006,0.22432089,-0.025495144,-0.475062,0.098959446,0.4228175,-0.08525264,-0.17591581,-0.32519773,-0.13005841,0.036416985,-0.08763898,0.37148434,-0.16548796,0.21352147,0.15830065,-0.21000825,-0.0037857061,0.26651183,0.2848797,0.17709742,0.2775021,0.08871667,-0.18850084,0.1733703,-0.33229178,-0.2651711,-0.074106716,-0.08144502,-0.12100496,0.037351254,0.016312987,-0.30464906,0.16770537,0.06374363,0.03924786,0.23038112,0.30197763,-0.28199202,0.4945211,0.041657224,-0.13145323,0.11759873,-0.41618472,0.4479234,0.07360598,0.06930021,-0.036395177,-0.026905492,-0.03345731,0.3395749,-0.074423544,-0.26412925,0.046660084,-0.8728651,0.14342925,0.087899856,0.06967139,-0.29328775,-0.0025667674,0.02493015,0.25287667,0.014021307,-0.37821183,0.15410386,0.002558549,0.19958322,-0.27641255,-0.13110736,-0.27724478,-3.3325765,-0.30955312,-0.06573692,-0.35910955,-0.06667502,0.18697946,0.051321544,-0.25299072,-0.08100679,0.21966672,0.06924632,0.03444017,0.3837724,-0.069740325,0.26193276,-0.3110577,0.16471249,-0.1652318,0.049466807,0.07686822,0.15618354,0.18372737,0.09226291,-0.19697835,0.3725805,-0.13717438,-0.02949564,0.109911054,-0.015683446,-0.38038912,-0.0800082,-0.013575059,-0.6508334,0.04272961,-0.05331643,-0.22471558,0.14998975,0.106443964,0.13346721,0.018819159,0.20239015,-0.15935434,-0.08386405,0.434005,-0.12938419,0.03411416,-0.13746747,0.0058517735,-0.09759694,0.072996885,0.08093378,0.12914187,-0.26933464,-0.06662433,0.22347344,0.07412094,0.10619011,0.1111251,0.11728497,0.19643003,0.2652769,0.04799226,-0.23732176,-0.31212875,-0.23656963,-0.044888157,-0.03937914,-0.030202795,0.2016842,0.044412468,0.045801632,-0.007082287,0.21132082,0.074600905,-0.065867074,-0.06686922,-0.04876185,-0.34643513,0.07869467,0.028215094,0.27138916,0.008112268,-0.039644245,-0.12137149,-0.14383662,0.29791707,0.0013058798,0.051262785,-0.24770519,-0.19008869,-0.18472236,-0.2874453,-0.28512937,0.31651336,-0.12952624,0.042335648,-0.19635954,0.07459715,0.039600898,-0.007392336,0.2415477,0.072103895,0.056183092,-0.087471195,0.09876082,-0.16981353,-0.13951191,-0.08645642,0.02610957,0.0918328,-0.0018698345,0.115580276,-0.06760796,-0.11277276,0.04265122,-0.03889846,0.032996193,-0.35439575,0.081151135,-0.58706707,0.15565136,-0.07120841,0.060675237,0.13026503,-0.21728326,-0.040717855,0.013062397,-0.1334542,-0.06830543,0.09620741,0.094084255,-0.033944976,0.08453155,0.15718342,-0.23184253,0.13843216,0.2787873,0.1669853,-0.14932556,0.035997484,-0.26103055,0.09900432,0.008752467,-0.054284178,-0.29914388,-0.03841942,-0.09182741,-0.11819318,0.05152845,-0.0112872105,-0.23019156,-0.123835355,0.13231128,0.19739413,-0.037135173,-0.16888563,-0.15239674,-0.08204143,-0.28056845,-0.12055684,0.2664716,0.03193015,0.37981504,0.015458418,-0.29686555,-0.08260843,0.1650973,-0.075496644,-0.16439018,-0.21162231,0.2794987,0.11257255,0.40954828,0.091479205,0.12378269,-0.15593474,0.10988879,0.11263689,-0.09284274,-0.15715769,0.14790688,0.2891443,-0.21598428,0.059923988,0.37012267,-0.014184987,0.119831435,-0.10005753,-0.15198617,-0.07579241,-0.21909529,-0.1721345,-0.117047034,-0.114571735,-0.18456842,0.12106894,0.3011471,-0.024105875,0.10858719,0.0025383646,-0.3016682,-0.25022206,0.119316176,0.12817916,-0.070030764,-0.23991504,-0.04893923,-0.12322098,-0.0143358465,0.20861965,0.07105795,0.30950817,-0.014541384,0.016834969,-0.2496171,-0.0061247554,0.06346915,0.22464328,0.119759195,-0.27746207,0.14698158,0.19003311,0.45577854,0.22134171,-0.039743565,0.26016787,0.023724424,0.18287492,0.0130793685,-0.32722124,0.10013418,0.13753733,0.24245332,-0.08389723,0.123789385,0.20504454,-0.39169198,0.37674215,-0.105284914,0.16864412,-0.28092858,0.40526614,0.073784746,-0.06658966,-0.20476665,-0.01457908,-0.17977741,-0.120480634,0.13140203,-0.09275251,0.15634179,0.28219193,-0.17139068,-0.31850475,0.18094535,0.47729185,0.008803532,-0.114567906
belimumab,-0.24656175,-0.15978116,0.06379207,0.06115552,0.35456303,-0.17898156,0.12620309,0.12907596,-0.24959691,0.03219901,0.12372715,0.20153122,0.26209453,0.29869932,0.005032407,-0.12823944,0.0990865,-0.22457492,-0.2797391,-0.10191856,-0.17910378,-0.1743818,-0.09688211,0.10123362,-0.32259953,0.076302804,0.055553753,0.040755868,0.04050542,0.30459955,-0.44303778,0.29899973,0.09553086,-0.44577658,0.09807456,-0.50748867,0.48721465,0.16979258,0.12608802,-0.0748194,0.016835883,-0.14764374,0.37302092,-0.052372362,-0.2518683,0.08282112,-0.9642573,0.09894553,-0.07068746,-0.10240447,-0.18001293,0.033860512,0.15190718,0.3359504,-0.014714799,-0.39061925,0.21520193,-0.013197607,0.29275203,-0.2434627,-0.10082493,-0.25436822,-3.4876504,-0.19170853,-0.1541629,-0.25006893,-0.010384516,0.14973912,0.15580837,-0.16623223,-0.15106568,0.21139848,0.048737615,0.14086173,0.27337822,-0.19047369,0.113190636,-0.3271348,0.11491182,-0.122113414,0.10960734,-0.061714515,0.19443153,0.21936746,-0.05910419,-0.20115171,0.47580558,-0.09527152,0.11357272,0.10396663,-0.13895892,-0.21011196,-0.08121189,-0.06751415,-0.58101285,0.19410111,-0.042450372,-0.13893363,0.15628219,0.07548277,0.12558562,0.15115118,0.22133194,-0.20519,-0.030879809,0.4262809,-0.063810736,0.115953356,-0.06881075,0.010387308,-0.13625532,0.15105781,0.28843403,0.030800348,-0.3085964,-0.056517705,0.15539348,0.09817482,-0.16403256,0.13966708,0.124433085,0.24436346,0.36269465,0.1571875,-0.24745813,-0.39811772,-0.33727798,0.007235746,-0.06647388,-0.13493109,0.25592417,0.15331136,-0.10130188,-0.004875068,0.32923815,0.03534119,0.004581875,-0.18877417,-0.034365177,-0.29786396,0.07619493,0.1574689,0.3290383,-0.01769947,-0.091733545,-0.11904744,-0.19004722,0.11977359,-0.020433797,0.16540961,-0.24536912,-0.23997848,-0.34182537,-0.21938774,-0.10573477,0.35508603,-0.11299552,0.0027443364,-0.28883913,0.09503461,0.075879306,0.042347427,0.24612087,0.05098868,0.0018258236,-0.015134598,0.10621159,-0.16509521,-0.25961462,-0.01482522,-0.14474174,0.12930699,0.031708516,0.23330362,-0.032891683,-0.07688597,0.11059811,0.016917866,-0.014214308,-0.16149347,0.07658543,-0.44862565,0.10587588,-0.18493253,0.11764634,0.11695419,0.004486086,-0.043093495,-0.08138814,-0.20091327,-0.13794525,0.044952564,0.4290762,-0.09751083,0.18199834,0.13863347,-0.20403226,0.19331871,0.23709746,0.18505558,-0.1961729,0.0037162013,-0.26998124,0.15157883,0.038536638,-0.06819666,-0.33647308,0.021469118,-0.1514086,-0.064391166,0.041149028,0.06838374,-0.17220557,-0.09973668,0.015705604,0.36548787,-0.23803064,-0.16721368,-0.05572318,-0.005384596,-0.2606605,-0.17580235,0.26643813,0.15749155,0.31022382,0.032503482,-0.18268253,-0.21955226,0.24796723,-0.08251384,-0.17350379,-0.23659384,0.3356858,0.0320162,0.38075396,0.01329591,0.16008084,-0.20984368,0.03764726,0.13409112,-0.11696533,-0.119958416,0.04889806,0.21915406,-0.22284165,-0.13108355,0.23346925,-0.021039324,0.1712929,-0.042596586,-0.15177442,0.03386199,-0.3029471,-0.11006346,-0.14024886,0.013208771,-0.13933286,0.095070444,0.23296095,-0.07232151,0.020344509,0.10387565,-0.19377033,-0.11227524,0.1116814,0.06052463,-0.01826131,-0.22881538,0.07376241,-0.21761657,0.0433892,0.27701345,0.045480616,0.22533844,0.10257705,-0.0086793555,-0.27413878,0.06376246,0.09020754,0.22898372,0.024823967,-0.36282736,0.03504022,0.18036887,0.56656945,0.18585543,-0.07225379,0.2908418,-0.10309455,0.24244726,0.16255471,-0.23367,0.113673754,0.12824237,0.1516838,-0.15046224,0.11930404,0.21306995,-0.48702374,0.35977858,-0.059256002,0.04818524,-0.31166643,0.37013996,0.17764837,-0.060046345,-0.18441828,-0.064438015,-0.117785454,-0.19261773,0.012569187,-0.066072926,0.15068011,0.3041369,-0.13530548,-0.30133337,0.17159374,0.4561544,-0.07414697,-0.14522274,-0.30038282,-0.089233205,0.015206822,-0.05436562,0.4963846,-0.12571944,0.23672713,0.13578993,-0.17377385,-0.0047771167,0.16448392,0.063353315,0.19125602,0.26780808,0.031744726,-0.19728483,0.1457948,-0.3401439,-0.31160694,-0.053243246,-0.0142745655,-0.13785517,-0.014119678,0.091821715,-0.24421333,0.035537455,-0.008162912,-0.06625395,0.13336875,0.32421565,-0.4053217,0.4287542,0.09410304,-0.20093505,0.12987907,-0.3508463,0.41082445,0.06289831,0.09921971,-0.12516382,0.057093333,-0.09940379,0.3187706,-0.104004316,-0.2691507,0.094947286,-0.8999007,0.14278351,-0.07821585,-0.0064270264,-0.30799526,0.036708172,0.10861402,0.26180658,0.019322623,-0.42865187,0.15607013,-0.07312356,0.28894424,-0.20038405,-0.061074257,-0.27830854,-3.1944597,-0.25504425,0.0061275233,-0.20916246,0.028590811,0.19354051,0.10471829,-0.18572578,-0.05188673,0.19783713,0.067172155,-0.00018690692,0.31769073,-0.21159476,0.17827122,-0.351695,0.13020164,-0.13587435,0.14209634,-0.093618184,0.12688577,0.24166107,-0.01009538,-0.108036645,0.39723277,-0.1535803,0.020866774,0.11982151,-0.052234117,-0.23676755,-0.061656713,-0.12766686,-0.62074226,0.17895967,-0.059349943,-0.17045052,0.15742883,0.10657943,0.12491452,0.07216366,0.2960776,-0.21993768,-0.25456443,0.47832853,-0.052114636,0.1389179,-0.069028646,0.02083697,-0.17457934,0.039325856,0.10799631,0.07010622,-0.27715677,-0.07846767,0.27119198,0.090179004,-0.021816747,0.1493597,0.10804688,0.2767993,0.32796833,0.14514211,-0.20987989,-0.4344274,-0.2820862,-0.034261946,0.015270106,-0.08833404,0.21728572,0.10887326,-0.057687894,-0.03282669,0.32364812,0.07647775,-0.04044719,-0.07596839,-0.06953269,-0.2872445,0.12366996,0.06858992,0.33849767,-0.06581488,-0.11187423,-0.060081735,-0.13671172,0.2555275,-0.010759272,0.029770205,-0.31809163,-0.26696527,-0.23632675,-0.2502393,-0.2291803,0.36794946,-0.09817604,0.09588422,-0.29537368,0.09957222,0.12346305,-0.022654044,0.23629835,0.014868373,0.018901499,-0.06921338,0.081970744,-0.107774705,-0.23957977,-0.021676907,-0.078683026,0.04179109,0.07530704,0.08531184,-0.044498637,-0.106087536,0.08265681,-0.006786939,0.06671957,-0.23205517,0.10774893,-0.49643666,0.24781339,-0.1596263,0.1473648,0.15615886,-0.09791312,0.0032635045,-0.02193093,-0.12916012,-0.23623152,0.08744143,0.18042497,-0.06417431,0.2423271,0.100207,-0.2837356,0.14047988,0.13885501,0.13441089,-0.2010647,-0.04159185,-0.2569578,0.06717343,0.025486495,-0.14934094,-0.33579743,0.17508096,-0.15914561,-0.15220283,0.023754297,0.057892013,-0.2121309,-0.10781613,0.010162563,0.32327104,-0.16271332,-0.16045009,-0.04539872,-0.06492526,-0.2037338,-0.13328585,0.129469,0.11646916,0.35550597,0.021701641,-0.3618674,-0.19191647,0.25596148,-0.06628831,-0.1376089,-0.221749,0.24131058,0.09228203,0.32464832,0.05835436,0.14200433,-0.15470523,0.11242987,0.23281462,-0.11469706,-0.101995945,0.17594288,0.24000923,-0.24739622,-0.0392769,0.27471048,-0.027899953,0.1414964,-0.06003054,-0.18321131,0.053486846,-0.28272077,-0.06601876,-0.06955352,0.016537517,-0.17623548,0.08659453,0.28747466,-0.0019041785,0.04748073,0.11036903,-0.2964404,-0.13792965,0.22271563,0.08917329,0.011515193,-0.21027413,0.039642327,-0.19731016,0.034127492,0.31499618,0.108533226,0.18984443,0.015861996,0.07366599,-0.25450385,0.015927138,0.038005415,0.18974632,0.004137473,-0.39289778,0.04201448,0.19071786,0.5918486,0.23581955,-0.05998291,0.25225434,-0.05033528,0.19935007,0.19791706,-0.36753803,0.058764584,0.049780995,0.22872193,-0.119930215,0.1542532,0.2535043,-0.43821618,0.36433148,-0.06642508,0.04164601,-0.34458274,0.4310305,0.15407963,-0.10223274,-0.18107785,-0.07229722,-0.103224084,-0.18752013,0.0056519206,-0.045286257,0.07177084,0.2558357,-0.14889973,-0.40923107,0.18363683,0.5587775,-0.066196166,-0.2634653
benralizumab,-0.30572614,-0.1443979,-0.0124374805,0.08414964,0.46900493,-0.23060428,0.13798924,0.08261575,-0.19443639,-0.07751203,0.13875781,0.13146213,0.20757073,0.22731084,0.09191434,-0.12773761,0.09881541,-0.21269526,-0.20460199,-0.07751942,-0.08734343,-0.15462409,0.0541219,0.067600705,-0.29339516,0.076010875,0.066196516,0.017661354,0.06965235,0.30548406,-0.41854522,0.47962487,0.07796548,-0.34090757,0.097929865,-0.3589721,0.37848142,0.049992632,0.11615455,-0.06533344,0.102313004,-0.08738713,0.22670898,-0.088883765,-0.26345193,0.098788425,-1.1238179,0.19403142,-0.12727578,-0.12687963,-0.16132957,0.107729726,0.19327971,0.28508282,-0.015654953,-0.45458803,0.23735821,-0.055573713,0.27090877,-0.21384735,-0.02976783,-0.38904288,-3.4336977,-0.28295457,-0.01960107,-0.18835229,-0.010598453,0.27504307,0.13409579,-0.21525109,-0.11598084,0.23286846,0.11984202,0.10657208,0.22617051,-0.24500248,0.18113093,-0.32513952,0.13936089,-0.09040694,0.14583251,-0.0041458327,0.22941864,0.19751087,0.017967958,-0.08364985,0.44289356,-0.12133416,0.07286076,0.1367359,-0.18382826,-0.25241995,-0.055171918,-0.03386924,-0.56413037,0.19590046,-0.03682917,-0.17051299,0.19749779,0.07151022,0.28363046,0.20010576,0.24324997,-0.09616425,-0.0793824,0.49272218,-0.08596192,0.20118003,-0.07445813,0.08517142,-0.15196824,0.08709978,0.22181866,0.07059117,-0.31888145,-0.12601657,0.3224259,0.09626056,-0.16689888,0.06657892,0.052179378,0.22688441,0.34063765,0.09288744,-0.13904244,-0.30495906,-0.2582532,0.016859626,-0.1162428,-0.04772876,0.20335051,0.13651177,-0.083686434,-0.027635656,0.27981156,0.02727617,-0.05065315,-0.01947416,-0.04867821,-0.3798919,0.13525274,0.1087291,0.2658834,-0.090848595,-0.08830763,-0.17468756,-0.13498999,0.14191917,-0.025628239,0.14524998,-0.23303995,-0.19614445,-0.19070832,-0.17681648,-0.22109285,0.32862267,-0.14898708,0.09067958,-0.3397755,0.06812216,0.04649223,0.009896863,0.25530508,0.051156916,-0.010841431,-0.057688434,0.16416782,-0.10129703,-0.2951623,0.023707222,-0.20011096,0.0818664,0.17885366,0.05831621,-0.12822771,-0.052259162,0.062002413,-0.023202773,-0.055274066,-0.176882,0.019325238,-0.460295,0.23417398,-0.10786852,0.08467524,0.13685945,-0.15777068,-0.06966677,0.005088097,-0.23743927,-0.13908477,0.0018895244,0.3237671,-0.08912376,0.21638206,0.08202201,-0.2573285,0.160156,0.20442253,0.23012102,-0.23493227,-0.04294299,-0.3663463,0.17503256,0.1356309,-0.10260733,-0.35506833,-0.035144966,-0.112907,-0.118527465,0.072499596,0.09120777,-0.19644032,-0.067833535,0.007396097,0.3683276,-0.23099275,-0.09854881,-0.12521052,-0.06265437,-0.3389177,-0.099319205,0.17915651,0.12968905,0.24835414,-0.041744478,-0.26073468,-0.21950115,0.2955188,0.008282837,-0.061039466,-0.21119094,0.26896492,0.100010015,0.33560586,0.04712659,0.07732551,-0.21707241,0.10618574,0.16417284,-0.16234024,-0.14910881,0.05011843,0.21061395,-0.11952277,-0.09700419,0.2787803,-0.086102836,0.095096566,-0.012553572,-0.13683653,0.051637877,-0.30148876,-0.08262252,-0.10154327,0.059433248,-0.1840986,0.12721929,0.28722832,-0.075382344,-0.008240772,0.098937415,-0.25464687,-0.13607211,0.21747597,0.17313048,-0.07171005,-0.26069838,0.1135339,-0.23943165,0.00294091,0.27243662,-0.004602996,0.09945289,0.08637682,0.08780385,-0.26786673,0.055122767,0.0043397737,0.1886623,0.068363145,-0.3052914,0.110657796,0.13209146,0.49259937,0.25287455,-0.026644992,0.24860162,-0.02206579,0.25258774,0.07036792,-0.29556924,0.04033725,0.14478496,0.14670452,-0.13841608,0.11126406,0.17595837,-0.49197236,0.32041943,-0.017297551,0.06635275,-0.31957012,0.3748082,0.21408945,-0.12595074,-0.17996258,-0.04697753,-0.09653875,-0.23250894,-0.026016932,0.021252086,0.06893243,0.26998115,0.012604071,-0.3994392,0.16731706,0.3920686,-0.072784014,-0.18306296,-0.2570959,-0.13503997,-0.008459512,0.011803302,0.4077753,-0.1529786,0.22307213,0.15080754,-0.09306453,-0.048259914,0.19989434,0.230101,0.20774753,0.2858624,0.06813389,-0.2176955,0.16355579,-0.31773853,-0.24522685,-0.08018783,-0.00248824,-0.14172323,0.10493024,0.06789461,-0.18616362,0.094046086,-0.012572362,-0.027498277,0.18963009,0.30586365,-0.39776644,0.53683287,0.054976285,-0.13091624,0.08701811,-0.295244,0.36777103,0.03836553,0.0768495,-0.06307692,0.018549068,-0.12566777,0.25851947,-0.12164759,-0.23481397,0.11632803,-1.0437484,0.19167994,-0.012262674,-0.08655994,-0.17557779,0.124369495,0.08889917,0.26167575,-0.017599568,-0.37288344,0.17420396,-0.085215926,0.2241178,-0.19203734,-0.06878761,-0.31610522,-3.3604736,-0.2695203,0.0067937383,-0.17472696,0.01903353,0.19594501,0.030089641,-0.16346766,-0.13512892,0.18734893,0.079603784,0.05060563,0.33693466,-0.14491479,0.21595304,-0.2638422,0.10701018,-0.19843625,0.014003885,0.07747209,0.23191245,0.15335558,0.027730156,-0.11933953,0.4460129,-0.11109508,-0.0003767838,0.07036401,-0.15978052,-0.31746304,-0.025500737,-0.10643583,-0.6020509,0.20101693,-0.08167886,-0.22489312,0.12959492,0.09318024,0.1836822,0.054617845,0.23551993,-0.2504032,-0.15507084,0.3492114,-0.056743212,0.14310685,-0.14623068,0.036415182,-0.11955051,0.06328811,0.16630787,0.115129456,-0.29327205,-0.020850467,0.2932786,0.14110532,-0.0027708556,0.057090126,0.08204717,0.2701826,0.33412164,0.00025482936,-0.17911622,-0.30200517,-0.288005,-0.069427006,-0.08768861,-0.08710009,0.23834665,0.10611516,-0.026869591,-0.0032876863,0.30348676,0.06581785,-0.050881777,-0.06241386,-0.02537512,-0.34122184,0.2156055,0.006238767,0.33017018,-0.116841905,-0.06133183,-0.16427355,-0.17435527,0.28182763,0.015963435,0.105749324,-0.2418724,-0.21098752,-0.25881317,-0.19870576,-0.26786736,0.32006416,-0.07992862,0.09636699,-0.24474171,0.0606791,0.13719268,-0.028706763,0.2022628,0.047759693,0.043389086,-0.06463222,0.1435275,-0.0973125,-0.19932175,-0.0033240037,-0.22835934,0.06317454,0.08327928,0.029726703,-0.15414317,-0.10494006,0.09788595,-0.057643462,-0.0023447108,-0.305684,-0.010910836,-0.5602295,0.20489359,-0.051148076,0.09252573,0.12095969,-0.14499883,-0.05867409,-0.05953295,-0.09722977,-0.08870325,0.056411866,0.17386775,-0.01021683,0.1977346,0.037941925,-0.30575383,0.13705312,0.1757121,0.21016411,-0.17269854,-0.10383807,-0.27429906,0.0865445,0.04694056,-0.14816466,-0.31306472,-0.14475393,-0.15191357,-0.13570774,0.05183327,0.003483145,-0.22988471,-0.10310848,0.08788888,0.29889372,-0.12272382,-0.17475328,-0.13966562,-0.043026213,-0.3172077,-0.08144707,0.19460338,0.14941715,0.34976903,-0.10217277,-0.2879667,-0.12713438,0.18414906,-0.021189597,-0.16306308,-0.20106348,0.2840838,0.05402237,0.3518217,0.06614502,0.08297429,-0.11317026,0.14248301,0.2421264,-0.17340164,-0.14367457,0.11409918,0.28663853,-0.19556811,0.0075090155,0.3608874,-0.036590967,0.09099925,-0.13722749,-0.12784407,0.04391262,-0.25196707,-0.10540335,0.04362268,0.009311016,-0.13212462,0.10349491,0.32489833,-0.014364082,0.08084517,0.06653531,-0.2632394,-0.1616241,0.19928478,0.18134637,-0.06010871,-0.19907737,0.020116284,-0.17303357,-0.029097678,0.29708564,0.06996813,0.13436274,-0.03844852,0.033435177,-0.24837051,0.042290732,0.010475671,0.20037752,0.059740048,-0.35066757,0.08345787,0.1354578,0.5624882,0.24127023,-0.056585453,0.22975276,0.09662967,0.21027286,0.096266285,-0.32399237,0.04731096,0.094191946,0.20717221,-0.043563392,0.07064707,0.25915077,-0.33724126,0.36557645,-0.16920543,0.03568054,-0.29219928,0.39417174,0.18154208,-0.08787665,-0.1716607,-0.026743958,-0.14452842,-0.2509137,0.070230365,-0.02208485,0.0894337,0.28426346,-0.073163696,-0.35415855,0.18921337,0.39300025,-0.10823946,-0.15952073
bevacizumab,-0.21645053,-0.084371656,-0.054309823,-0.008882414,0.4312393,-0.25031903,0.0790754,0.04673062,-0.17744042,-0.1164455,0.13214496,0.07109714,0.26597068,0.19030808,0.029387066,-0.08746816,0.12404607,-0.19093572,-0.24340722,-0.06412046,-0.06517651,-0.122113265,0.04596141,0.1512734,-0.31326315,0.09539257,0.03614562,0.013968392,0.065112285,0.37140936,-0.45251837,0.37411523,0.11053244,-0.2882632,0.0656946,-0.39701363,0.32482183,0.09714201,0.13807823,-0.047461826,0.090265445,-0.13665736,0.2908301,-0.07395602,-0.26688266,0.04795994,-1.1589638,0.1317486,-0.16998176,-0.06427663,-0.20804232,0.09334858,0.13714422,0.36465898,-0.050555464,-0.36471453,0.25743875,-0.09154976,0.21258876,-0.1808251,-0.06401292,-0.2653414,-3.5873318,-0.256121,-0.022645837,-0.28453642,0.013210782,0.2537831,0.17114663,-0.18309848,-0.10475943,0.20213154,0.033577904,0.08644937,0.22972676,-0.15903421,0.10524902,-0.28310633,0.07649741,-0.15156722,0.18002251,0.034601666,0.13351682,0.20458616,-0.00027772275,-0.014419406,0.40470937,-0.11278425,0.028254742,0.15196303,-0.15672152,-0.21099198,-0.05114623,0.021306837,-0.56862956,0.18323046,0.017574841,-0.13645516,0.15992887,0.113359176,0.17474188,0.20806715,0.23601083,-0.15362583,-0.1089002,0.4312591,-0.067606315,0.14588308,-0.035471894,0.053449746,-0.18101797,0.11392299,0.16679387,0.049124386,-0.37868127,-0.12912112,0.26522896,0.14671804,-0.16693586,0.10687288,0.079915084,0.23011488,0.35330155,0.22488001,-0.12978773,-0.36125737,-0.27807936,-0.0027451126,-0.08857308,-0.078894936,0.21459737,0.11567809,-0.11856762,-0.031041704,0.28617114,0.020301407,-0.05639216,-0.02768592,-0.051660996,-0.3102324,0.15274584,0.08027877,0.3368057,-0.06701032,-0.10466392,-0.15205827,-0.09332131,0.13680959,-0.11124895,0.12922709,-0.2181581,-0.23139419,-0.28100723,-0.21752752,-0.13421656,0.31095788,-0.14422132,0.12650202,-0.28549883,0.06900466,0.09925972,0.043011364,0.26736894,0.064689584,-0.07302421,-0.108746484,0.14441188,-0.08793827,-0.2535484,0.05765948,-0.07374594,0.100549154,0.1835511,0.13511926,-0.068732925,-0.07041829,0.033292174,-0.0026074215,-0.006475315,-0.11011541,0.10312936,-0.458131,0.19220106,-0.06348545,0.10798302,0.0985037,-0.09629366,-0.04445121,-0.002717875,-0.22449766,-0.13870156,0.0065878117,0.31789306,-0.068776384,0.14804819,0.07841838,-0.2569882,0.14108999,0.17827904,0.20094238,-0.19094399,-0.021683292,-0.24878757,0.11209603,0.08506783,-0.050997585,-0.39214614,0.08661952,-0.16387735,-0.09426596,0.08693926,0.012293667,-0.14842135,-0.050281987,0.037575692,0.37262955,-0.15379268,-0.1073572,-0.12447515,-0.084564015,-0.2712111,-0.13480689,0.16728866,0.15351024,0.22863245,0.028730994,-0.2798288,-0.21657336,0.22681327,-0.016929002,-0.087149605,-0.168867,0.2321491,0.038059525,0.34475735,0.06818079,0.11917261,-0.22079892,0.07618083,0.18224835,-0.14031403,-0.18387038,0.115558006,0.1939813,-0.08214878,-0.12056109,0.2680158,-0.07242848,0.11126966,0.018330002,-0.15240869,0.03854273,-0.3000073,-0.112942114,-0.118489385,0.11865977,-0.15590718,0.12199555,0.30780116,-0.020009646,-0.0043488946,0.082046,-0.22768149,-0.14134309,0.1632298,0.16580595,-0.0905005,-0.18655619,0.14188325,-0.2615607,0.025819164,0.21953657,0.060352262,0.09819074,0.08430946,0.04755672,-0.24844027,0.0071724257,0.01575553,0.11378229,-0.0053111906,-0.29434076,0.0776913,0.13325894,0.6156101,0.20585583,-0.106827565,0.24193452,-0.045152433,0.21431147,0.11960279,-0.2588752,0.11090224,0.15288073,0.15289354,-0.12289315,0.086428605,0.21874262,-0.47238898,0.31876552,0.029446967,0.03717986,-0.3063515,0.38624477,0.25994685,-0.10640335,-0.1631739,-0.12285997,-0.052732985,-0.22797778,-0.041077077,-0.045032777,0.053432915,0.18070757,-0.025644312,-0.44352934,0.09987491,0.45140943,-0.058466278,-0.23939437,-0.28066438,-0.097848,-0.02691133,-0.07022661,0.4060842,-0.15508024,0.20186162,0.12495892,-0.12734625,-0.0070419847,0.20908377,0.2726495,0.20079577,0.28185973,0.060058706,-0.20505321,0.16588703,-0.3034546,-0.27243584,-0.14318334,-0.038972694,-0.12892677,0.102881886,0.046049997,-0.2137937,0.10643809,-0.0072867936,-0.064405434,0.212487,0.33570674,-0.38726583,0.513184,0.037994932,-0.07722709,0.12324273,-0.32495,0.36400563,0.007379551,0.07597032,-0.058095053,0.03169657,-0.13048612,0.30516893,-0.075442635,-0.24994679,0.09520459,-1.0121764,0.1896753,-0.013889748,-0.059548974,-0.19244243,0.10824348,0.08281419,0.27534997,-0.01690648,-0.3677577,0.16378976,-0.08418981,0.18759301,-0.1901082,-0.041645423,-0.3042851,-3.3452828,-0.2746987,0.02971471,-0.22984467,0.016505886,0.24594487,0.04121742,-0.1841954,-0.12791646,0.25076655,0.12879877,-0.014229903,0.34391198,-0.14587246,0.26962394,-0.28214952,0.12731813,-0.2190011,0.029486591,0.09283824,0.2198486,0.19483127,0.028366232,-0.10789409,0.43752322,-0.11169384,-0.014688428,0.06786276,-0.10889118,-0.3392272,-0.02404878,-0.106559224,-0.63111323,0.1668744,-0.06913994,-0.22712582,0.1287808,0.072267585,0.16958363,0.053678468,0.23613133,-0.24620089,-0.17115566,0.35128585,-0.07058632,0.09572988,-0.11385499,0.006528761,-0.1210927,0.08985227,0.11706236,0.10960662,-0.24745217,-0.06265659,0.3178597,0.13438995,0.037778284,0.051873192,0.058097605,0.2637625,0.28570864,0.039050214,-0.1599688,-0.29581308,-0.26830414,-0.06934948,-0.07133905,-0.0829227,0.24081905,0.058996953,-0.00964937,-0.055898704,0.28940985,0.10495696,-0.063904256,0.016414441,-0.07071735,-0.33995876,0.19555949,0.02046065,0.312836,-0.09619768,-0.071340054,-0.20700929,-0.16263573,0.29416606,-0.051064983,0.09008181,-0.25473234,-0.16645303,-0.23005643,-0.158279,-0.2521877,0.30449113,-0.096454084,0.06070059,-0.21422738,0.08876159,0.11536937,-0.033814028,0.19545215,0.042622317,0.042638965,-0.07511288,0.09988284,-0.11095332,-0.16726123,-0.01348748,-0.13995193,0.048821907,0.076465555,0.032357924,-0.12555788,-0.09996172,0.08934506,-0.05570018,-0.006198455,-0.2928398,0.011258061,-0.6091959,0.18155082,-0.014974886,0.09078869,0.116209105,-0.19684029,-0.0146483,-0.060373627,-0.1187503,-0.14535233,0.09868169,0.10798681,-0.014523013,0.24113774,0.051977497,-0.2872936,0.16379939,0.23959821,0.19203717,-0.18370023,-0.1221283,-0.27431017,0.08242368,0.059193593,-0.11628015,-0.33521307,-0.052665826,-0.11781435,-0.17172156,0.059903752,-0.0043416647,-0.23786573,-0.07949578,0.08650316,0.26515356,-0.07865651,-0.1884225,-0.15975909,-0.06490584,-0.3016423,-0.11471223,0.23385827,0.099736795,0.33815986,-0.070506856,-0.2548682,-0.08483992,0.19719894,-0.042423632,-0.16342384,-0.20963071,0.26565778,0.037833028,0.39107695,0.10234669,0.08714926,-0.15000905,0.1296273,0.2038422,-0.15179268,-0.17668754,0.14765729,0.31067798,-0.2331352,0.025244227,0.36798075,-0.026318213,0.0887686,-0.13795955,-0.114766,0.07468913,-0.25478685,-0.14359637,0.00076279294,-0.0057059005,-0.105202645,0.15920457,0.31280833,0.0051304,0.0967173,0.04236416,-0.28244144,-0.18676887,0.24344751,0.17079192,-0.060662657,-0.18602261,0.03660285,-0.13629824,-0.0412923,0.27383536,0.06674855,0.16426484,-0.06317493,0.07738037,-0.25045645,0.009119737,-0.020882338,0.1864531,0.056291427,-0.3135369,0.08720667,0.14185789,0.54760647,0.25911167,-0.035124872,0.22954898,0.025776727,0.23916002,0.08915411,-0.3466107,0.02326523,0.1030881,0.22974661,-0.047002584,0.065962106,0.24443689,-0.38885534,0.36213687,-0.15451583,0.053516895,-0.31328318,0.42517254,0.16208658,-0.09744161,-0.15493403,-0.06952261,-0.21132593,-0.23039566,0.06384763,-0.04218637,0.07466554,0.32000202,-0.11254706,-0.33647984,0.17218173,0.4176576,-0.07154375,-0.12800509
